{"learner":{"attributes":{"best_iteration":"99","best_ntree_limit":"100"},"feature_names":["sepal length (cm)","sepal width (cm)","petal length (cm)","petal width (cm)"],"feature_types":["float","float","float","float"],"gradient_booster":{"model":{"gbtree_model_param":{"num_parallel_tree":"1","num_trees":"300","size_leaf_vector":"0"},"tree_info":[0,1,2,0,1,2,0,1,2,0,1,2,0,1,2,0,1,2,0,1,2,0,1,2,0,1,2,0,1,2,0,1,2,0,1,2,0,1,2,0,1,2,0,1,2,0,1,2,0,1,2,0,1,2,0,1,2,0,1,2,0,1,2,0,1,2,0,1,2,0,1,2,0,1,2,0,1,2,0,1,2,0,1,2,0,1,2,0,1,2,0,1,2,0,1,2,0,1,2,0,1,2,0,1,2,0,1,2,0,1,2,0,1,2,0,1,2,0,1,2,0,1,2,0,1,2,0,1,2,0,1,2,0,1,2,0,1,2,0,1,2,0,1,2,0,1,2,0,1,2,0,1,2,0,1,2,0,1,2,0,1,2,0,1,2,0,1,2,0,1,2,0,1,2,0,1,2,0,1,2,0,1,2,0,1,2,0,1,2,0,1,2,0,1,2,0,1,2,0,1,2,0,1,2,0,1,2,0,1,2,0,1,2,0,1,2,0,1,2,0,1,2,0,1,2,0,1,2,0,1,2,0,1,2,0,1,2,0,1,2,0,1,2,0,1,2,0,1,2,0,1,2,0,1,2,0,1,2,0,1,2,0,1,2,0,1,2,0,1,2,0,1,2,0,1,2,0,1,2,0,1,2,0,1,2,0,1,2,0,1,2,0,1,2,0,1,2,0,1,2],"trees":[{"base_weights":[-5.134479E-2,1.3984963E0,-7.2631586E-1],"categories":[],"categories_nodes":[],"categories_segments":[],"categories_sizes":[],"default_left":[1,0,0],"id":0,"left_children":[1,-1,-1],"loss_changes":[4.5487717E1,0E0,0E0],"parents":[2147483647,0,0],"right_children":[2,-1,-1],"split_conditions":[2.45E0,4.195489E-1,-2.1789476E-1],"split_indices":[2,0,0],"split_type":[0,0,0],"sum_hessian":[4.4444443E1,1.3777777E1,3.0666664E1],"tree_param":{"num_deleted":"0","num_feature":"4","num_nodes":"3","size_leaf_vector":"0"}},{"base_weights":[3.6674775E-2,-6.992482E-1,3.7894735E-1,1.1925466E0,-6.31579E-1,1.3404255E0,1.0344825E-1,-2.5544848E-8,-6.9421494E-1],"categories":[],"categories_nodes":[],"categories_segments":[],"categories_sizes":[],"default_left":[1,0,1,1,1,0,0,0,0],"id":1,"left_children":[1,-1,3,5,7,-1,-1,-1,-1],"loss_changes":[1.1711807E1,0E0,2.6788363E1,2.742424E0,5.846019E-1,0E0,0E0,0E0,0E0],"parents":[2147483647,0,0,2,2,3,3,4,4],"right_children":[2,-1,4,6,8,-1,-1,-1,-1],"split_conditions":[2.45E0,-2.0977446E-1,1.75E0,4.95E0,4.8500004E0,4.0212765E-1,3.1034475E-2,-7.663455E-9,-2.0826449E-1],"split_indices":[2,0,3,2,2,0,0,0,0],"split_type":[0,0,0,0,0,0,0,0,0],"sum_hessian":[4.4444443E1,1.3777777E1,3.0666664E1,1.6888887E1,1.3777777E1,1.4666666E1,2.222222E0,1.3333333E0,1.2444444E1],"tree_param":{"num_deleted":"0","num_feature":"4","num_nodes":"9","size_leaf_vector":"0"}},{"base_weights":[1.4669883E-2,-6.579926E-1,1.2281879E0,-7.2332025E-1,2.3999998E-1,2.3999998E-1,1.3308271E0,4.285714E-1,1.3884298E0],"categories":[],"categories_nodes":[],"categories_segments":[],"categories_sizes":[],"default_left":[1,1,1,0,0,0,1,0,0],"id":2,"left_children":[1,3,5,-1,-1,-1,7,-1,-1],"loss_changes":[3.7903893E1,1.9269896E0,1.3597775E0,0E0,0E0,0E0,1.7299652E-1,0E0,0E0],"parents":[2147483647,0,0,1,1,2,2,6,6],"right_children":[2,4,6,-1,-1,-1,8,-1,-1],"split_conditions":[1.55E0,4.8E0,1.75E0,-2.1699609E-1,7.2E-2,7.2E-2,4.8500004E0,1.2857142E-1,4.1652894E-1],"split_indices":[3,2,3,0,0,0,2,0,0],"split_type":[0,0,0,0,0,0,0,0,0],"sum_hessian":[4.4444443E1,2.8888887E1,1.5555554E1,2.7111109E1,1.7777777E0,1.7777777E0,1.3777777E1,1.3333333E0,1.2444444E1],"tree_param":{"num_deleted":"0","num_feature":"4","num_nodes":"9","size_leaf_vector":"0"}},{"base_weights":[-4.4456024E-2,9.684946E-1,-6.504601E-1],"categories":[],"categories_nodes":[],"categories_segments":[],"categories_sizes":[],"default_left":[1,0,0],"id":3,"left_children":[1,-1,-1],"loss_changes":[2.7006754E1,0E0,0E0],"parents":[2147483647,0,0],"right_children":[2,-1,-1],"split_conditions":[2.45E0,2.9054838E-1,-1.9513805E-1],"split_indices":[2,0,0],"split_type":[0,0,0],"sum_hessian":[4.1969273E1,1.5485955E1,2.6483316E1],"tree_param":{"num_deleted":"0","num_feature":"4","num_nodes":"3","size_leaf_vector":"0"}},{"base_weights":[2.654782E-2,-6.219288E-1,2.880333E-1,8.3298355E-1,-5.5555254E-1,9.2909163E-1,6.92994E-2,-8.489E-3,-6.1750144E-1,3.7173444E-1,9.7681624E-1],"categories":[],"categories_nodes":[],"categories_segments":[],"categories_sizes":[],"default_left":[1,0,1,1,1,1,0,0,0,0,0],"id":4,"left_children":[1,-1,3,5,7,9,-1,-1,-1,-1,-1],"loss_changes":[7.59428E0,0E0,1.510329E1,1.3850718E0,4.3867493E-1,1.0132122E-1,0E0,0E0,0E0,0E0,0E0],"parents":[2147483647,0,0,2,2,3,3,4,4,5,5],"right_children":[2,-1,4,6,8,10,-1,-1,-1,-1,-1],"split_conditions":[2.45E0,-1.8657865E-1,1.75E0,4.95E0,4.8500004E0,5.05E0,2.078982E-2,-2.5467E-3,-1.8525043E-1,1.11520335E-1,2.930449E-1],"split_indices":[2,0,3,2,2,0,0,0,0,0,0],"split_type":[0,0,0,0,0,0,0,0,0,0,0],"sum_hessian":[4.2729816E1,1.1882674E1,3.0847141E1,1.8748388E1,1.2098752E1,1.6460302E1,2.2880867E0,1.3463476E0,1.0752405E1,1.9914994E0,1.4468802E1],"tree_param":{"num_deleted":"0","num_feature":"4","num_nodes":"11","size_leaf_vector":"0"}},{"base_weights":[1.7268782E-2,-5.777767E-1,8.6942554E-1,-6.461269E-1,2.2302976E-1,2.0262063E-1,9.315065E-1],"categories":[],"categories_nodes":[],"categories_segments":[],"categories_sizes":[],"default_left":[1,1,1,0,0,0,0],"id":5,"left_children":[1,3,5,-1,-1,-1,-1],"loss_changes":[2.25047E1,1.5754738E0,5.663309E-1,0E0,0E0,0E0,0E0],"parents":[2147483647,0,0,1,1,2,2],"right_children":[2,4,6,-1,-1,-1,-1],"split_conditions":[1.55E0,4.8E0,1.75E0,-1.9383809E-1,6.690893E-2,6.078619E-2,2.7945197E-1],"split_indices":[3,2,3,0,0,0,0],"split_type":[0,0,0,0,0,0,0],"sum_hessian":[4.239101E1,2.5150713E1,1.72403E1,2.3350832E1,1.7998807E0,1.8315564E0,1.5408742E1],"tree_param":{"num_deleted":"0","num_feature":"4","num_nodes":"7","size_leaf_vector":"0"}},{"base_weights":[-4.225058E-2,7.760401E-1,-5.994879E-1],"categories":[],"categories_nodes":[],"categories_segments":[],"categories_sizes":[],"default_left":[1,0,0],"id":6,"left_children":[1,-1,-1],"loss_changes":[1.7797655E1,0E0,0E0],"parents":[2147483647,0,0],"right_children":[2,-1,-1],"split_conditions":[2.45E0,2.3281203E-1,-1.7984638E-1],"split_indices":[2,0,0],"split_type":[0,0,0],"sum_hessian":[3.7011204E1,1.4834465E1,2.2176739E1],"tree_param":{"num_deleted":"0","num_feature":"4","num_nodes":"3","size_leaf_vector":"0"}},{"base_weights":[2.3084551E-2,-5.6743217E-1,2.40182E-1,6.599637E-1,-4.946549E-1,7.41368E-1,4.765461E-2,2.3493359E-2,-5.6396824E-1,2.8379685E-1,7.83003E-1],"categories":[],"categories_nodes":[],"categories_segments":[],"categories_sizes":[],"default_left":[1,0,1,1,1,1,0,0,0,0,0],"id":7,"left_children":[1,-1,3,5,7,9,-1,-1,-1,-1,-1],"loss_changes":[5.195768E0,0E0,9.444658E0,9.237261E-1,4.197452E-1,1.00022316E-1,0E0,0E0,0E0,0E0,0E0],"parents":[2147483647,0,0,2,2,3,3,4,4,5,5],"right_children":[2,-1,4,6,8,10,-1,-1,-1,-1,-1],"split_conditions":[2.45E0,-1.7022966E-1,1.75E0,4.95E0,4.8500004E0,5.05E0,1.4296384E-2,7.048008E-3,-1.6919048E-1,8.513906E-2,2.349009E-1],"split_indices":[2,0,3,2,2,0,0,0,0,0,0],"split_type":[0,0,0,0,0,0,0,0,0,0,0],"sum_hessian":[3.8465626E1,9.906283E0,2.8559343E1,1.8240942E1,1.0318401E1,1.5914407E1,2.3265362E0,1.2954428E0,9.022959E0,1.9791971E0,1.3935209E1],"tree_param":{"num_deleted":"0","num_feature":"4","num_nodes":"11","size_leaf_vector":"0"}},{"base_weights":[1.7789258E-2,-5.1896167E-1,6.871318E-1,-5.938279E-1,2.1233639E-1,1.6388045E-1,7.3861253E-1,2.2978355E-1,7.7543247E-1],"categories":[],"categories_nodes":[],"categories_segments":[],"categories_sizes":[],"default_left":[1,1,1,0,0,0,1,0,0],"id":8,"left_children":[1,3,5,-1,-1,-1,7,-1,-1],"loss_changes":[1.4391699E1,1.3442607E0,3.5886574E-1,0E0,0E0,0E0,1.2035656E-1,0E0,0E0],"parents":[2147483647,0,0,1,1,2,2,6,6],"right_children":[2,4,6,-1,-1,-1,8,-1,-1],"split_conditions":[1.55E0,4.8E0,1.75E0,-1.7814837E-1,6.370092E-2,4.916414E-2,4.8500004E0,6.893507E-2,2.3262975E-1],"split_indices":[3,2,3,0,0,0,2,0,0],"split_type":[0,0,0,0,0,0,0,0,0],"sum_hessian":[3.8065594E1,2.1249847E1,1.6815746E1,1.9446957E1,1.8028915E0,1.8809597E0,1.4934786E1,1.4963859E0,1.34384E1],"tree_param":{"num_deleted":"0","num_feature":"4","num_nodes":"9","size_leaf_vector":"0"}},{"base_weights":[-4.2727433E-2,6.6769284E-1,-5.6292176E-1],"categories":[],"categories_nodes":[],"categories_segments":[],"categories_sizes":[],"default_left":[1,0,0],"id":9,"left_children":[1,-1,-1],"loss_changes":[1.2322616E1,0E0,0E0],"parents":[2147483647,0,0],"right_children":[2,-1,-1],"split_conditions":[2.45E0,2.0030786E-1,-1.6887653E-1],"split_indices":[2,0,0],"split_type":[0,0,0],"sum_hessian":[3.132727E1,1.3122524E1,1.8204746E1],"tree_param":{"num_deleted":"0","num_feature":"4","num_nodes":"3","size_leaf_vector":"0"}},{"base_weights":[2.002549E-2,-5.257163E-1,2.0725219E-1,5.5350024E-1,-4.4646308E-1,6.3109016E-1,3.3689328E-2,2.12607E-2,-5.215974E-1,2.1489926E-1,6.7441785E-1],"categories":[],"categories_nodes":[],"categories_segments":[],"categories_sizes":[],"default_left":[1,0,1,1,1,1,0,0,0,0,0],"id":10,"left_children":[1,-1,3,5,7,9,-1,-1,-1,-1,-1],"loss_changes":[3.623429E0,0E0,6.206195E0,6.9090414E-1,3.5089839E-1,1.311078E-1,0E0,0E0,0E0,0E0,0E0],"parents":[2147483647,0,0,2,2,3,3,4,4,5,5],"right_children":[2,-1,4,6,8,10,-1,-1,-1,-1,-1],"split_conditions":[2.45E0,-1.577149E-1,1.75E0,4.95E0,4.8500004E0,5.05E0,1.0106798E-2,6.37821E-3,-1.5647922E-1,6.446978E-2,2.0232536E-1],"split_indices":[2,0,3,2,2,0,0,0,0,0,0],"split_type":[0,0,0,0,0,0,0,0,0,0,0],"sum_hessian":[3.339579E1,8.068687E0,2.5327103E1,1.665754E1,8.669563E0,1.43078E1,2.349739E0,1.2991526E0,7.370411E0,1.9110246E0,1.2396775E1],"tree_param":{"num_deleted":"0","num_feature":"4","num_nodes":"11","size_leaf_vector":"0"}},{"base_weights":[2.0401655E-2,-4.713713E-1,5.795755E-1,-5.5562997E-1,2.0449197E-1,1.3334113E-1,6.2951976E-1,1.8982193E-1,6.6586465E-1],"categories":[],"categories_nodes":[],"categories_segments":[],"categories_sizes":[],"default_left":[1,1,1,0,0,0,1,0,0],"id":11,"left_children":[1,3,5,-1,-1,-1,7,-1,-1],"loss_changes":[9.606713E0,1.1734538E0,2.80025E-1,0E0,0E0,0E0,1.0402155E-1,0E0,0E0],"parents":[2147483647,0,0,1,1,2,2,6,6],"right_children":[2,4,6,-1,-1,-1,8,-1,-1],"split_conditions":[1.55E0,4.8E0,1.75E0,-1.66689E-1,6.1347593E-2,4.0002342E-2,4.8500004E0,5.694658E-2,1.9975941E-1],"split_indices":[3,2,3,0,0,0,2,0,0],"split_type":[0,0,0,0,0,0,0,0,0],"sum_hessian":[3.2941723E1,1.761074E1,1.5330981E1,1.5816787E1,1.7939545E0,1.9125775E0,1.3418404E1,1.4995656E0,1.19188385E1],"tree_param":{"num_deleted":"0","num_feature":"4","num_nodes":"9","size_leaf_vector":"0"}},{"base_weights":[-4.4542275E-2,5.9817797E-1,-5.348595E-1],"categories":[],"categories_nodes":[],"categories_segments":[],"categories_sizes":[],"default_left":[1,0,0],"id":12,"left_children":[1,-1,-1],"loss_changes":[8.779742E0,0E0,0E0],"parents":[2147483647,0,0],"right_children":[2,-1,-1],"split_conditions":[2.45E0,1.794534E-1,-1.6045785E-1],"split_indices":[2,0,0],"split_type":[0,0,0],"sum_hessian":[2.5844852E1,1.1089055E1,1.4755796E1],"tree_param":{"num_deleted":"0","num_feature":"4","num_nodes":"3","size_leaf_vector":"0"}},{"base_weights":[1.7579723E-2,-4.9131113E-1,1.8253201E-1,4.3836907E-1,-5.169337E-1,5.9382564E-1,-1.3038197E-1,7.8720056E-2,6.395562E-1,-4.850234E-1,3.3618873E-1],"categories":[],"categories_nodes":[],"categories_segments":[],"categories_sizes":[],"default_left":[1,0,1,1,0,1,1,0,0,0,0],"id":13,"left_children":[1,-1,3,5,-1,7,9,-1,-1,-1,-1],"loss_changes":[2.5599701E0,0E0,4.334129E0,1.6112266E0,0E0,2.7481747E-1,9.148917E-1,0E0,0E0,0E0,0E0],"parents":[2147483647,0,0,2,2,3,3,5,5,6,6],"right_children":[2,-1,4,6,-1,8,10,-1,-1,-1,-1],"split_conditions":[2.45E0,-1.4739335E-1,5.1499996E0,1.6500001E0,-1.5508011E-1,2.25E0,2.9E0,2.3616018E-2,1.9186687E-1,-1.4550702E-1,1.00856625E-1],"split_indices":[2,0,2,3,0,1,1,0,0,0,0],"split_type":[0,0,0,0,0,0,0,0,0,0,0],"sum_hessian":[2.8428286E1,6.474729E0,2.1953556E1,1.6347548E1,5.60601E0,1.2803801E1,3.5437465E0,1.2659245E0,1.1537876E1,1.9909052E0,1.5528412E0],"tree_param":{"num_deleted":"0","num_feature":"4","num_nodes":"11","size_leaf_vector":"0"}},{"base_weights":[2.342256E-2,-4.297108E-1,5.0386715E-1,-5.2586406E-1,1.9854316E-1,1.0851818E-1,5.5595756E-1,1.9503169E-1,6.176959E-1,-2.8869024E-2,3.3996472E-1],"categories":[],"categories_nodes":[],"categories_segments":[],"categories_sizes":[],"default_left":[1,1,1,0,0,0,1,1,0,0,0],"id":14,"left_children":[1,3,5,-1,-1,-1,7,9,-1,-1,-1],"loss_changes":[6.521935E0,1.0374124E0,2.3865438E-1,0E0,0E0,0E0,1.5997076E-1,1.1689447E-1,0E0,0E0,0E0],"parents":[2147483647,0,0,1,1,2,2,6,6,7,7],"right_children":[2,4,6,-1,-1,-1,8,10,-1,-1,-1],"split_conditions":[1.55E0,4.8E0,1.75E0,-1.5775922E-1,5.956295E-2,3.2555457E-2,5.95E0,5.05E0,1.8530878E-1,-8.660708E-3,1.0198942E-1],"split_indices":[3,2,3,0,0,0,0,2,0,0,0],"split_type":[0,0,0,0,0,0,0,0,0,0,0],"sum_hessian":[2.7963066E1,1.4444898E1,1.3518169E1,1.2668916E1,1.7759821E0,1.9327217E0,1.1585447E1,2.2997842E0,9.285664E0,1.2183775E0,1.0814066E0],"tree_param":{"num_deleted":"0","num_feature":"4","num_nodes":"11","size_leaf_vector":"0"}},{"base_weights":[-4.6990402E-2,5.489525E-1,-5.117015E-1],"categories":[],"categories_nodes":[],"categories_segments":[],"categories_sizes":[],"default_left":[1,0,0],"id":15,"left_children":[1,-1,-1],"loss_changes":[6.3719983E0,0E0,0E0],"parents":[2147483647,0,0],"right_children":[2,-1,-1],"split_conditions":[2.45E0,1.6468576E-1,-1.5351047E-1],"split_indices":[2,0,0],"split_type":[0,0,0],"sum_hessian":[2.0994186E1,9.118892E0,1.1875294E1],"tree_param":{"num_deleted":"0","num_feature":"4","num_nodes":"3","size_leaf_vector":"0"}},{"base_weights":[1.3983943E-2,-4.6087962E-1,1.607528E-1,3.8774025E-1,-4.8714706E-1,5.383531E-1,-1.0710675E-1,4.745017E-2,5.8939916E-1,-4.534455E-1,3.0929887E-1],"categories":[],"categories_nodes":[],"categories_segments":[],"categories_sizes":[],"default_left":[1,0,1,1,0,1,1,0,0,0,0],"id":16,"left_children":[1,-1,3,5,-1,7,9,-1,-1,-1,-1],"loss_changes":[1.8137771E0,0E0,3.1021528E0,1.1925101E0,0E0,2.6871753E-1,7.7294385E-1,0E0,0E0,0E0,0E0],"parents":[2147483647,0,0,2,2,3,3,5,5,6,6],"right_children":[2,-1,4,6,-1,8,10,-1,-1,-1,-1],"split_conditions":[2.45E0,-1.382639E-1,5.1499996E0,1.6500001E0,-1.4614412E-1,2.25E0,2.9E0,1.4235051E-2,1.7681976E-1,-1.3603365E-1,9.2789665E-2],"split_indices":[2,0,2,3,0,1,1,0,0,0,0],"split_type":[0,0,0,0,0,0,0,0,0,0,0],"sum_hessian":[2.3961403E1,5.152043E0,1.8809359E1,1.4226679E1,4.5826807E0,1.0839596E1,3.3870828E0,1.2027242E0,9.636871E0,1.8005514E0,1.5865314E0],"tree_param":{"num_deleted":"0","num_feature":"4","num_nodes":"11","size_leaf_vector":"0"}},{"base_weights":[2.7845893E-2,-3.9169687E-1,4.429595E-1,-5.002961E-1,1.8588504E-1,2.0920463E-1,5.5841476E-1,5.1589674E-1,-4.9806926E-2,1.6709769E-1,-2.8570998E-1],"categories":[],"categories_nodes":[],"categories_segments":[],"categories_sizes":[],"default_left":[1,1,1,0,0,1,0,0,1,0,0],"id":17,"left_children":[1,3,5,-1,-1,7,-1,-1,9,-1,-1],"loss_changes":[4.4543266E0,8.9308894E-1,2.2928953E-1,0E0,0E0,4.89536E-1,0E0,0E0,2.563855E-1,0E0,0E0],"parents":[2147483647,0,0,1,1,2,2,5,5,8,8],"right_children":[2,4,6,-1,-1,8,-1,-1,10,-1,-1],"split_conditions":[1.55E0,4.8E0,5.1499996E0,-1.5008885E-1,5.5765513E-2,5.8500004E0,1.6752443E-1,1.5476903E-1,4.95E0,5.012931E-2,-8.5713E-2],"split_indices":[3,2,2,0,0,0,0,0,2,0,0],"split_type":[0,0,0,0,0,0,0,0,0,0,0],"sum_hessian":[2.3580112E1,1.1755548E1,1.1824566E1,1.0007673E1,1.7478739E0,4.839117E0,6.9854484E0,1.7615268E0,3.0775905E0,1.7553113E0,1.3222792E0],"tree_param":{"num_deleted":"0","num_feature":"4","num_nodes":"11","size_leaf_vector":"0"}},{"base_weights":[-4.9634434E-2,5.109515E-1,-4.9142304E-1],"categories":[],"categories_nodes":[],"categories_segments":[],"categories_sizes":[],"default_left":[1,0,0],"id":18,"left_children":[1,-1,-1],"loss_changes":[4.6860604E0,0E0,0E0],"parents":[2147483647,0,0],"right_children":[2,-1,-1],"split_conditions":[2.45E0,1.5328546E-1,-1.4742692E-1],"split_indices":[2,0,0],"split_type":[0,0,0],"sum_hessian":[1.6907448E1,7.382824E0,9.524624E0],"tree_param":{"num_deleted":"0","num_feature":"4","num_nodes":"3","size_leaf_vector":"0"}},{"base_weights":[9.863021E-3,1.3612968E-1,-4.564919E-1,-4.323587E-1,3.4288755E-1,4.9194798E-1,-9.097487E-2,2.1525675E-2,5.4963815E-1,-4.1676977E-1,2.628136E-1],"categories":[],"categories_nodes":[],"categories_segments":[],"categories_sizes":[],"default_left":[1,1,0,0,1,1,1,0,0,0,0],"id":19,"left_children":[1,3,-1,-1,5,7,9,-1,-1,-1,-1],"loss_changes":[1.3073783E0,2.1947923E0,0E0,0E0,9.0654325E-1,2.615683E-1,5.99565E-1,0E0,0E0,0E0,0E0],"parents":[2147483647,0,0,1,1,4,4,5,5,6,6],"right_children":[2,4,-1,-1,6,8,10,-1,-1,-1,-1],"split_conditions":[5.1499996E0,2.45E0,-1.3694757E-1,-1.2970762E-1,1.6500001E0,2.25E0,2.9E0,6.4577027E-3,1.6489145E-1,-1.2503093E-1,7.8844085E-2],"split_indices":[2,2,0,0,3,1,1,0,0,0,0],"split_type":[0,0,0,0,0,0,0,0,0,0,0],"sum_hessian":[2.014689E1,1.641153E1,3.7353606E0,4.085943E0,1.2325586E1,9.07414E0,3.2514465E0,1.1412432E0,7.9328966E0,1.6000142E0,1.6514324E0],"tree_param":{"num_deleted":"0","num_feature":"4","num_nodes":"11","size_leaf_vector":"0"}},{"base_weights":[3.262954E-2,-4.7103658E-1,3.209805E-1,7.245109E-2,5.404284E-1,3.1481868E-1,-2.3724265E-1,-7.444241E-2,5.1086175E-1,-4.0547827E-1,5.0586183E-2],"categories":[],"categories_nodes":[],"categories_segments":[],"categories_sizes":[],"default_left":[1,0,1,1,0,1,1,0,0,0,0],"id":20,"left_children":[1,-1,3,5,-1,7,9,-1,-1,-1,-1],"loss_changes":[3.1789637E0,0E0,7.163445E-1,6.489402E-1,0E0,3.9834043E-1,2.1076816E-1,0E0,0E0,0E0,0E0],"parents":[2147483647,0,0,2,2,3,3,5,5,6,6],"right_children":[2,-1,4,6,-1,8,10,-1,-1,-1,-1],"split_conditions":[4.45E0,-1.4131097E-1,5.1499996E0,2.85E0,1.6212852E-1,1.6500001E0,1.75E0,-2.2332724E-2,1.5325853E-1,-1.2164348E-1,1.5175856E-2],"split_indices":[2,0,2,1,0,3,3,0,0,0,0],"split_type":[0,0,0,0,0,0,0,0,0,0,0],"sum_hessian":[1.9847729E1,6.9953365E0,1.2852391E1,6.6505985E0,6.201793E0,3.72155E0,2.9290485E0,1.4542608E0,2.2672894E0,1.590598E0,1.3384504E0],"tree_param":{"num_deleted":"0","num_feature":"4","num_nodes":"11","size_leaf_vector":"0"}},{"base_weights":[-5.0334476E-2,4.793163E-1,-4.7192702E-1],"categories":[],"categories_nodes":[],"categories_segments":[],"categories_sizes":[],"default_left":[1,0,0],"id":21,"left_children":[1,-1,-1],"loss_changes":[3.4708047E0,0E0,0E0],"parents":[2147483647,0,0],"right_children":[2,-1,-1],"split_conditions":[2.45E0,1.437949E-1,-1.4157811E-1],"split_indices":[2,0,0],"split_type":[0,0,0],"sum_hessian":[1.3530445E1,5.9360323E0,7.594413E0],"tree_param":{"num_deleted":"0","num_feature":"4","num_nodes":"3","size_leaf_vector":"0"}},{"base_weights":[6.602939E-3,1.2239254E-1,-4.2378107E-1,-4.045519E-1,3.0395406E-1,4.488745E-1,-7.490627E-2,-6.877925E-3,5.162941E-1,-3.7751868E-1,2.214473E-1],"categories":[],"categories_nodes":[],"categories_segments":[],"categories_sizes":[],"default_left":[1,1,0,0,1,1,1,0,0,0,0],"id":22,"left_children":[1,3,-1,-1,5,7,9,-1,-1,-1,-1],"loss_changes":[9.439806E-1,1.5468084E0,0E0,0E0,6.726937E-1,2.6663828E-1,4.4926852E-1,0E0,0E0,0E0,0E0],"parents":[2147483647,0,0,1,1,4,4,5,5,6,6],"right_children":[2,4,-1,-1,6,8,10,-1,-1,-1,-1],"split_conditions":[5.1499996E0,2.45E0,-1.2713432E-1,-1.2136557E-1,1.6500001E0,2.25E0,2.9E0,-2.0633775E-3,1.5488824E-1,-1.1325561E-1,6.64342E-2],"split_indices":[2,2,0,0,3,1,1,0,0,0,0],"split_type":[0,0,0,0,0,0,0,0,0,0,0],"sum_hessian":[1.6901695E1,1.3882419E1,3.0192764E0,3.2427714E0,1.06396475E1,7.5621834E0,3.0774636E0,1.0902368E0,6.4719467E0,1.3871443E0,1.6903194E0],"tree_param":{"num_deleted":"0","num_feature":"4","num_nodes":"11","size_leaf_vector":"0"}},{"base_weights":[3.4739975E-2,-4.483857E-1,2.9132545E-1,7.0378534E-2,5.006855E-1,2.4035875E-1,-3.1078976E-1,4.9596205E-1,4.9061432E-2,1.1611179E-1,-3.0179307E-2],"categories":[],"categories_nodes":[],"categories_segments":[],"categories_sizes":[],"default_left":[1,0,1,1,0,1,0,0,1,0,0],"id":23,"left_children":[1,-1,3,5,-1,7,-1,-1,9,-1,-1],"loss_changes":[2.318643E0,0E0,5.2606106E-1,5.32599E-1,0E0,2.4222821E-1,0E0,0E0,2.5966898E-2,0E0,0E0],"parents":[2147483647,0,0,2,2,3,3,5,5,8,8],"right_children":[2,-1,4,6,-1,8,-1,-1,10,-1,-1],"split_conditions":[4.45E0,-1.3451572E-1,5.1499996E0,6.25E0,1.5020566E-1,2.6E0,-9.323693E-2,1.4878862E-1,2.85E0,3.483354E-2,-9.053793E-3],"split_indices":[2,0,2,0,0,1,0,0,1,0,0],"split_type":[0,0,0,0,0,0,0,0,0,0,0],"sum_hessian":[1.665056E1,5.516331E0,1.1134229E1,6.0673E0,5.0669293E0,4.4515624E0,1.6157377E0,1.2237781E0,3.2277842E0,1.496338E0,1.7314461E0],"tree_param":{"num_deleted":"0","num_feature":"4","num_nodes":"11","size_leaf_vector":"0"}},{"base_weights":[-5.2637246E-2,4.5110306E-1,-4.534053E-1],"categories":[],"categories_nodes":[],"categories_segments":[],"categories_sizes":[],"default_left":[1,0,0],"id":24,"left_children":[1,-1,-1],"loss_changes":[2.6026723E0,0E0,0E0],"parents":[2147483647,0,0],"right_children":[2,-1,-1],"split_conditions":[2.45E0,1.3533093E-1,-1.360216E-1],"split_indices":[2,0,0],"split_type":[0,0,0],"sum_hessian":[1.0878858E1,4.7645373E0,6.1143208E0],"tree_param":{"num_deleted":"0","num_feature":"4","num_nodes":"3","size_leaf_vector":"0"}},{"base_weights":[3.0835948E-3,1.0858329E-1,-3.921973E-1,-3.7693503E-1,2.6691678E-1,4.1587538E-1,-7.341972E-2,-1.4308407E-2,4.8847726E-1,-3.4926796E-1,1.8331589E-1],"categories":[],"categories_nodes":[],"categories_segments":[],"categories_sizes":[],"default_left":[1,1,0,0,1,1,1,0,0,0,0],"id":25,"left_children":[1,3,-1,-1,5,7,9,-1,-1,-1,-1],"loss_changes":[6.8221325E-1,1.0915092E0,0E0,0E0,5.5298334E-1,2.3555315E-1,3.4640828E-1,0E0,0E0,0E0,0E0],"parents":[2147483647,0,0,1,1,4,4,5,5,6,6],"right_children":[2,4,-1,-1,6,8,10,-1,-1,-1,-1],"split_conditions":[5.1499996E0,2.45E0,-1.17659196E-1,-1.1308052E-1,1.6500001E0,2.25E0,2.9E0,-4.292522E-3,1.4654319E-1,-1.0478039E-1,5.499477E-2],"split_indices":[2,2,0,0,3,1,1,0,0,0,0],"split_type":[0,0,0,0,0,0,0,0,0,0,0],"sum_hessian":[1.4338042E1,1.1889941E1,2.4481008E0,2.5844061E0,9.305535E0,6.3182206E0,2.9873145E0,1.0282873E0,5.2899337E0,1.2663126E0,1.7210019E0],"tree_param":{"num_deleted":"0","num_feature":"4","num_nodes":"11","size_leaf_vector":"0"}},{"base_weights":[3.8098637E-2,-4.258552E-1,2.6502925E-1,7.1343794E-2,4.6566492E-1,2.2231106E-1,-2.8027624E-1,4.4636247E-1,4.864571E-2,-2.4016416E-2,1.048741E-1],"categories":[],"categories_nodes":[],"categories_segments":[],"categories_sizes":[],"default_left":[1,0,1,1,0,1,0,0,1,0,0],"id":26,"left_children":[1,-1,3,5,-1,7,-1,-1,9,-1,-1],"loss_changes":[1.710098E0,0E0,3.8662142E-1,4.1680375E-1,0E0,1.8177807E-1,0E0,0E0,1.9141242E-2,0E0,0E0],"parents":[2147483647,0,0,2,2,3,3,5,5,8,8],"right_children":[2,-1,4,6,-1,8,-1,-1,10,-1,-1],"split_conditions":[4.45E0,-1.2775657E-1,5.1499996E0,6.25E0,1.3969949E-1,2.6E0,-8.408287E-2,1.3390875E-1,5.95E0,-7.204925E-3,3.146223E-2],"split_indices":[2,0,2,0,0,1,0,0,0,0,0],"split_type":[0,0,0,0,0,0,0,0,0,0,0],"sum_hessian":[1.4170527E1,4.3665795E0,9.803947E0,5.678116E0,4.1258316E0,4.229809E0,1.448307E0,1.1613144E0,3.0684946E0,1.5885457E0,1.4799489E0],"tree_param":{"num_deleted":"0","num_feature":"4","num_nodes":"11","size_leaf_vector":"0"}},{"base_weights":[-5.499876E-2,4.2469525E-1,-4.3498936E-1],"categories":[],"categories_nodes":[],"categories_segments":[],"categories_sizes":[],"default_left":[1,0,0],"id":27,"left_children":[1,-1,-1],"loss_changes":[1.969605E0,0E0,0E0],"parents":[2147483647,0,0],"right_children":[2,-1,-1],"split_conditions":[2.45E0,1.2740858E-1,-1.3049681E-1],"split_indices":[2,0,0],"split_type":[0,0,0],"sum_hessian":[8.791941E0,3.8341389E0,4.957802E0],"tree_param":{"num_deleted":"0","num_feature":"4","num_nodes":"3","size_leaf_vector":"0"}},{"base_weights":[-1.7807765E-4,9.5833E-2,-3.6172113E-1,-3.4945372E-1,2.3407355E-1,3.85977E-1,-7.183387E-2,7.30108E-2,4.5722708E-1,-3.2525286E-1,1.5501983E-1],"categories":[],"categories_nodes":[],"categories_segments":[],"categories_sizes":[],"default_left":[1,1,0,0,1,1,1,0,0,0,0],"id":28,"left_children":[1,3,-1,-1,5,7,9,-1,-1,-1,-1],"loss_changes":[4.9557212E-1,7.763018E-1,0E0,0E0,4.5562422E-1,1.0732114E-1,2.7453968E-1,0E0,0E0,0E0,0E0],"parents":[2147483647,0,0,1,1,4,4,5,5,6,6],"right_children":[2,4,-1,-1,6,8,10,-1,-1,-1,-1],"split_conditions":[5.1499996E0,2.45E0,-1.0851634E-1,-1.0483612E-1,1.6500001E0,2.35E0,2.9E0,2.1903241E-2,1.3716812E-1,-9.7575866E-2,4.650595E-2],"split_indices":[2,2,0,0,3,1,1,0,0,0,0],"split_type":[0,0,0,0,0,0,0,0,0,0,0],"sum_hessian":[1.2277986E1,1.0282347E1,1.9956385E0,2.0739803E0,8.208366E0,5.3099017E0,2.8984652E0,1.3601499E0,3.9497519E0,1.1641893E0,1.7342757E0],"tree_param":{"num_deleted":"0","num_feature":"4","num_nodes":"11","size_leaf_vector":"0"}},{"base_weights":[4.10503E-2,-4.0295476E-1,2.4184015E-1,7.165875E-2,4.3364108E-1,2.0628056E-1,-2.5373268E-1,4.0529707E-1,4.8571713E-2,-2.7584298E-2,1.07804745E-1],"categories":[],"categories_nodes":[],"categories_segments":[],"categories_sizes":[],"default_left":[1,0,1,1,0,1,0,0,1,0,0],"id":29,"left_children":[1,-1,3,5,-1,7,-1,-1,9,-1,-1],"loss_changes":[1.2721752E0,0E0,2.854905E-1,3.299213E-1,0E0,1.383117E-1,0E0,0E0,2.0767488E-2,0E0,0E0],"parents":[2147483647,0,0,2,2,3,3,5,5,8,8],"right_children":[2,-1,4,6,-1,8,-1,-1,10,-1,-1],"split_conditions":[4.45E0,-1.2088643E-1,5.1499996E0,6.25E0,1.3009232E-1,2.6E0,-7.611981E-2,1.21589124E-1,5.95E0,-8.27529E-3,3.2341424E-2],"split_indices":[2,0,2,0,0,1,0,0,0,0,0],"split_type":[0,0,0,0,0,0,0,0,0,0,0],"sum_hessian":[1.2176692E1,3.4783018E0,8.69839E0,5.336777E0,3.361613E0,4.033911E0,1.3028662E0,1.0893402E0,2.944571E0,1.5220183E0,1.4225527E0],"tree_param":{"num_deleted":"0","num_feature":"4","num_nodes":"11","size_leaf_vector":"0"}},{"base_weights":[-5.7743024E-2,3.99253E-1,-4.165801E-1],"categories":[],"categories_nodes":[],"categories_segments":[],"categories_sizes":[],"default_left":[1,0,0],"id":30,"left_children":[1,-1,-1],"loss_changes":[1.5058626E0,0E0,0E0],"parents":[2147483647,0,0],"right_children":[2,-1,-1],"split_conditions":[2.45E0,1.19775906E-1,-1.24974035E-1],"split_indices":[2,0,0],"split_type":[0,0,0],"sum_hessian":[7.1685786E0,3.103497E0,4.065081E0],"tree_param":{"num_deleted":"0","num_feature":"4","num_nodes":"3","size_leaf_vector":"0"}},{"base_weights":[-2.6372748E-3,8.450879E-2,-3.325207E-1,-3.223761E-1,2.0511119E-1,3.3026865E-1,-1.3319594E-1,6.888426E-2,4.574513E-1,3.0170032E-1,-2.1524191E-1],"categories":[],"categories_nodes":[],"categories_segments":[],"categories_sizes":[],"default_left":[1,1,0,0,1,1,0,1,0,0,0],"id":31,"left_children":[1,3,-1,-1,5,7,-1,9,-1,-1,-1],"loss_changes":[3.6322045E-1,5.57744E-1,0E0,0E0,3.9708066E-1,1.8040055E-1,0E0,2.8083175E-1,0E0,0E0,0E0],"parents":[2147483647,0,0,1,1,4,4,5,5,7,7],"right_children":[2,4,-1,-1,6,8,-1,10,-1,-1,-1],"split_conditions":[5.1499996E0,2.45E0,-9.975621E-2,-9.6712835E-2,1.75E0,2.55E0,-3.9958782E-2,4.45E0,1.372354E-1,9.05101E-2,-6.457257E-2],"split_indices":[2,2,0,0,3,1,0,2,0,0,0],"split_type":[0,0,0,0,0,0,0,0,0,0,0],"sum_hessian":[1.0657125E1,9.018508E0,1.6386179E0,1.6794337E0,7.3390737E0,5.3745193E0,1.9645545E0,2.263734E0,3.1107852E0,1.2102164E0,1.0535178E0],"tree_param":{"num_deleted":"0","num_feature":"4","num_nodes":"11","size_leaf_vector":"0"}},{"base_weights":[4.336621E-2,-3.8010198E-1,2.2218451E-1,1.086657E-2,3.4273332E-1,3.2020828E-1,-2.6242858E-1,4.6493396E-1,-1.9977672E-2],"categories":[],"categories_nodes":[],"categories_segments":[],"categories_sizes":[],"default_left":[1,0,1,1,1,0,0,0,0],"id":32,"left_children":[1,-1,3,5,7,-1,-1,-1,-1],"loss_changes":[9.617534E-1,0E0,2.1985933E-1,4.4087362E-1,2.555492E-1,0E0,0E0,0E0,0E0],"parents":[2147483647,0,0,2,2,3,3,4,4],"right_children":[2,-1,4,6,8,-1,-1,-1,-1],"split_conditions":[4.45E0,-1.140306E-1,1.75E0,2.65E0,3.15E0,9.606249E-2,-7.872858E-2,1.3948019E-1,-5.993302E-3],"split_indices":[2,0,3,1,1,0,0,0,0],"split_type":[0,0,0,0,0,0,0,0,0],"sum_hessian":[1.0585524E1,2.8086329E0,7.7768908E0,3.2209024E0,4.5559883E0,1.4302971E0,1.7906052E0,3.1970448E0,1.3589436E0],"tree_param":{"num_deleted":"0","num_feature":"4","num_nodes":"9","size_leaf_vector":"0"}},{"base_weights":[-5.811686E-2,3.7444112E-1,-3.9691636E-1],"categories":[],"categories_nodes":[],"categories_segments":[],"categories_sizes":[],"default_left":[1,0,0],"id":33,"left_children":[1,-1,-1],"loss_changes":[1.1556294E0,0E0,0E0],"parents":[2147483647,0,0],"right_children":[2,-1,-1],"split_conditions":[2.45E0,1.1233234E-1,-1.1907491E-1],"split_indices":[2,0,0],"split_type":[0,0,0],"sum_hessian":[5.8714066E0,2.5326622E0,3.3387444E0],"tree_param":{"num_deleted":"0","num_feature":"4","num_nodes":"3","size_leaf_vector":"0"}},{"base_weights":[-1.7765365E-3,8.415464E-2,-3.137249E-1,-2.9613197E-1,1.9373286E-1,3.0457735E-1,-9.7112976E-2,5.9816554E-2,4.263833E-1,2.7297986E-1,-1.8185493E-1],"categories":[],"categories_nodes":[],"categories_segments":[],"categories_sizes":[],"default_left":[1,1,0,0,1,1,0,1,0,0,0],"id":34,"left_children":[1,3,-1,-1,5,7,-1,9,-1,-1,-1],"loss_changes":[3.019037E-1,4.260103E-1,0E0,0E0,2.704679E-1,1.4299846E-1,0E0,2.0631464E-1,0E0,0E0,0E0],"parents":[2147483647,0,0,1,1,4,4,5,5,7,7],"right_children":[2,4,-1,-1,6,8,-1,10,-1,-1,-1],"split_conditions":[5.1499996E0,2.45E0,-9.411748E-2,-8.883959E-2,1.75E0,2.55E0,-2.9133894E-2,4.45E0,1.27915E-1,8.189396E-2,-5.455648E-2],"split_indices":[2,2,0,0,3,1,0,2,0,0,0],"split_type":[0,0,0,0,0,0,0,0,0,0,0],"sum_hessian":[9.277599E0,7.8464093E0,1.4311904E0,1.374342E0,6.4720674E0,4.6519475E0,1.82012E0,2.0412579E0,2.6106896E0,1.0157654E0,1.0254924E0],"tree_param":{"num_deleted":"0","num_feature":"4","num_nodes":"11","size_leaf_vector":"0"}},{"base_weights":[4.0763896E-2,-3.558081E-1,1.9829424E-1,5.109844E-2,3.8389915E-1,1.6656142E-1,-2.2423789E-1,2.6383215E-1,-1.5170464E-2],"categories":[],"categories_nodes":[],"categories_segments":[],"categories_sizes":[],"default_left":[1,0,1,1,0,1,0,0,0],"id":35,"left_children":[1,-1,3,5,-1,7,-1,-1,-1],"loss_changes":[7.105468E-1,0E0,1.982379E-1,2.1540347E-1,0E0,8.389944E-2,0E0,0E0,0E0],"parents":[2147483647,0,0,2,2,3,3,5,5],"right_children":[2,-1,4,6,-1,8,-1,-1,-1],"split_conditions":[4.45E0,-1.06742434E-1,5.1499996E0,6.25E0,1.1516975E-1,2.85E0,-6.727137E-2,7.914965E-2,-4.5511397E-3],"split_indices":[2,0,2,0,0,1,0,0,0],"split_type":[0,0,0,0,0,0,0,0,0],"sum_hessian":[9.244443E0,2.2703433E0,6.9740996E0,4.600743E0,2.3733568E0,3.519777E0,1.0809655E0,1.9983879E0,1.5213892E0],"tree_param":{"num_deleted":"0","num_feature":"4","num_nodes":"9","size_leaf_vector":"0"}},{"base_weights":[-5.714181E-2,3.502743E-1,-3.766841E-1],"categories":[],"categories_nodes":[],"categories_segments":[],"categories_sizes":[],"default_left":[1,0,0],"id":36,"left_children":[1,-1,-1],"loss_changes":[8.929033E-1,0E0,0E0],"parents":[2147483647,0,0],"right_children":[2,-1,-1],"split_conditions":[2.45E0,1.05082296E-1,-1.13005236E-1],"split_indices":[2,0,0],"split_type":[0,0,0],"sum_hessian":[4.84515E0,2.0874624E0,2.7576876E0],"tree_param":{"num_deleted":"0","num_feature":"4","num_nodes":"3","size_leaf_vector":"0"}},{"base_weights":[-1.1182461E-3,7.7580854E-2,-2.8718427E-1,-2.7116928E-1,1.7503487E-1,3.1304199E-1,-4.637136E-2,5.7578195E-2,3.8521042E-1,2.7675673E-2,-1.0548468E-1],"categories":[],"categories_nodes":[],"categories_segments":[],"categories_sizes":[],"default_left":[1,1,0,0,1,1,1,0,0,0,0],"id":37,"left_children":[1,3,-1,-1,5,7,9,-1,-1,-1,-1],"loss_changes":[2.290858E-1,3.1906894E-1,0E0,0E0,2.2393711E-1,5.8038622E-2,1.8251164E-2,0E0,0E0,0E0,0E0],"parents":[2147483647,0,0,1,1,4,4,5,5,6,6],"right_children":[2,4,-1,-1,6,8,10,-1,-1,-1,-1],"split_conditions":[5.1499996E0,2.45E0,-8.615528E-2,-8.135079E-2,1.6500001E0,2.45E0,5.95E0,1.727346E-2,1.1556313E-1,8.302703E-3,-3.1645406E-2],"split_indices":[2,2,0,0,3,1,0,0,0,0,0],"split_type":[0,0,0,0,0,0,0,0,0,0,0],"sum_hessian":[8.186005E0,6.991411E0,1.1945937E0,1.1376537E0,5.8537574E0,3.351079E0,2.5026784E0,1.1341642E0,2.216915E0,1.3470923E0,1.1555862E0],"tree_param":{"num_deleted":"0","num_feature":"4","num_nodes":"11","size_leaf_vector":"0"}},{"base_weights":[3.7560713E-2,-3.3166146E-1,1.7670979E-1,2.566481E-1,-8.8834226E-2,3.140072E-2,4.207682E-1,2.4959722E-1,-2.0036913E-1],"categories":[],"categories_nodes":[],"categories_segments":[],"categories_sizes":[],"default_left":[1,0,1,1,0,1,0,0,0],"id":38,"left_children":[1,-1,3,5,-1,7,-1,-1,-1],"loss_changes":[5.295189E-1,0E0,1.7795646E-1,2.039819E-1,0E0,2.2989863E-1,0E0,0E0,0E0],"parents":[2147483647,0,0,2,2,3,3,5,5],"right_children":[2,-1,4,6,-1,8,-1,-1,-1],"split_conditions":[4.45E0,-9.949844E-2,3.05E0,1.75E0,-2.6650269E-2,2.65E0,1.2623046E-1,7.487917E-2,-6.0110744E-2],"split_indices":[2,0,1,3,0,1,0,0,0],"split_type":[0,0,0,0,0,0,0,0,0],"sum_hessian":[8.165809E0,1.8564234E0,6.3093853E0,4.875258E0,1.4341273E0,2.557093E0,2.3181653E0,1.2774948E0,1.2795981E0],"tree_param":{"num_deleted":"0","num_feature":"4","num_nodes":"9","size_leaf_vector":"0"}},{"base_weights":[-5.9100542E-2,3.2692125E-1,-3.5825896E-1],"categories":[],"categories_nodes":[],"categories_segments":[],"categories_sizes":[],"default_left":[1,0,0],"id":39,"left_children":[1,-1,-1],"loss_changes":[7.033771E-1,0E0,0E0],"parents":[2147483647,0,0],"right_children":[2,-1,-1],"split_conditions":[2.45E0,9.807638E-2,-1.07477695E-1],"split_indices":[2,0,0],"split_type":[0,0,0],"sum_hessian":[4.076603E0,1.7393779E0,2.3372252E0],"tree_param":{"num_deleted":"0","num_feature":"4","num_nodes":"3","size_leaf_vector":"0"}},{"base_weights":[-2.4847772E-5,7.773215E-2,-2.728255E-1,-2.2903576E-1,1.630964E-1,2.8572083E-1,-2.646488E-2,4.3500353E-2,3.5971877E-1,4.0208887E-2,-8.687856E-2],"categories":[],"categories_nodes":[],"categories_segments":[],"categories_sizes":[],"default_left":[1,1,0,0,1,1,1,0,0,0,0],"id":40,"left_children":[1,3,-1,-1,5,7,9,-1,-1,-1,-1],"loss_changes":[1.9866058E-1,2.282143E-1,0E0,0E0,1.5367371E-1,5.4282665E-2,1.712504E-2,0E0,0E0,0E0,0E0],"parents":[2147483647,0,0,1,1,4,4,5,5,6,6],"right_children":[2,4,-1,-1,6,8,10,-1,-1,-1,-1],"split_conditions":[5.1499996E0,3.15E0,-8.184765E-2,-6.871073E-2,1.6500001E0,2.45E0,5.95E0,1.3050106E-2,1.0791563E-1,1.2062667E-2,-2.6063569E-2],"split_indices":[2,2,0,0,3,1,0,0,0,0,0],"split_type":[0,0,0,0,0,0,0,0,0,0,0],"sum_hessian":[7.3656383E0,6.288322E0,1.0773162E0,1.0025355E0,5.2857866E0,2.9015453E0,2.3842413E0,1.0505607E0,1.8509846E0,1.2923825E0,1.091859E0],"tree_param":{"num_deleted":"0","num_feature":"4","num_nodes":"11","size_leaf_vector":"0"}},{"base_weights":[3.5938635E-2,-3.0959728E-1,1.6038652E-1,2.4211018E-1,-9.522753E-2,3.4253687E-2,3.9626694E-1,2.3574142E-1,-1.8461195E-1],"categories":[],"categories_nodes":[],"categories_segments":[],"categories_sizes":[],"default_left":[1,0,1,1,0,1,0,0,0],"id":41,"left_children":[1,-1,3,5,-1,7,-1,-1,-1],"loss_changes":[4.0889722E-1,0E0,1.651231E-1,1.6059506E-1,0E0,1.938644E-1,0E0,0E0,0E0],"parents":[2147483647,0,0,2,2,3,3,5,5],"right_children":[2,-1,4,6,-1,8,-1,-1,-1],"split_conditions":[4.45E0,-9.287919E-2,3.05E0,1.75E0,-2.856826E-2,2.65E0,1.18880086E-1,7.072243E-2,-5.5383585E-2],"split_indices":[2,0,1,3,0,1,0,0,0],"split_type":[0,0,0,0,0,0,0,0,0],"sum_hessian":[7.3542295E0,1.5533916E0,5.800838E0,4.4355536E0,1.3652842E0,2.4092517E0,2.0263019E0,1.2142798E0,1.1949719E0],"tree_param":{"num_deleted":"0","num_feature":"4","num_nodes":"9","size_leaf_vector":"0"}},{"base_weights":[-6.048379E-2,3.0496618E-1,-3.4053475E-1],"categories":[],"categories_nodes":[],"categories_segments":[],"categories_sizes":[],"default_left":[1,0,0],"id":42,"left_children":[1,-1,-1],"loss_changes":[5.6203026E-1,0E0,0E0],"parents":[2147483647,0,0],"right_children":[2,-1,-1],"split_conditions":[2.45E0,9.148986E-2,-1.0216043E-1],"split_indices":[2,0,0],"split_type":[0,0,0],"sum_hessian":[3.4768221E0,1.4698231E0,2.006999E0],"tree_param":{"num_deleted":"0","num_feature":"4","num_nodes":"3","size_leaf_vector":"0"}},{"base_weights":[1.4493108E-3,8.3297916E-2,-1.8511285E-1,-1.2819085E-1,1.8324623E-1,3.3865637E-1,2.2890745E-2,-2.0967478E-1,2.6542526E-1],"categories":[],"categories_nodes":[],"categories_segments":[],"categories_sizes":[],"default_left":[1,1,0,0,1,0,1,0,0],"id":43,"left_children":[1,3,-1,-1,5,-1,7,-1,-1],"loss_changes":[1.3304286E-1,1.5124212E-1,0E0,0E0,1.04784E-1,0E0,2.41508E-1,0E0,0E0],"parents":[2147483647,0,0,1,1,4,4,6,6],"right_children":[2,4,-1,-1,6,-1,8,-1,-1],"split_conditions":[5.05E0,5.45E0,-5.5533856E-2,-3.8457256E-2,5.95E0,1.01596914E-1,6.25E0,-6.2902436E-2,7.962758E-2],"split_indices":[2,0,0,0,0,0,0,0,0],"split_type":[0,0,0,0,0,0,0,0,0],"sum_hessian":[6.7029786E0,5.043711E0,1.6592673E0,1.5279744E0,3.5157368E0,1.220737E0,2.2949998E0,1.2407417E0,1.0542581E0],"tree_param":{"num_deleted":"0","num_feature":"4","num_nodes":"9","size_leaf_vector":"0"}},{"base_weights":[3.3764753E-2,-1.602943E-1,2.3875797E-1,-3.3702242E-1,8.992057E-2,5.328712E-2,3.2628396E-1],"categories":[],"categories_nodes":[],"categories_segments":[],"categories_sizes":[],"default_left":[1,1,1,0,0,0,0],"id":44,"left_children":[1,3,5,-1,-1,-1,-1],"loss_changes":[3.44141E-1,2.3142177E-1,4.983279E-2,0E0,0E0,0E0,0E0],"parents":[2147483647,0,0,1,1,2,2],"right_children":[2,4,6,-1,-1,-1,-1],"split_conditions":[4.95E0,1.6E0,1.75E0,-1.0110673E-1,2.6976174E-2,1.5986137E-2,9.788519E-2],"split_indices":[2,3,3,0,0,0,0],"split_type":[0,0,0,0,0,0,0],"sum_hessian":[6.6888733E0,3.548088E0,3.1407852E0,1.8760744E0,1.6720138E0,1.5227774E0,1.6180078E0],"tree_param":{"num_deleted":"0","num_feature":"4","num_nodes":"7","size_leaf_vector":"0"}},{"base_weights":[-5.923317E-2,2.8578845E-1,-3.2340333E-1],"categories":[],"categories_nodes":[],"categories_segments":[],"categories_sizes":[],"default_left":[1,0,0],"id":45,"left_children":[1,-1,-1],"loss_changes":[4.5810905E-1,0E0,0E0],"parents":[2147483647,0,0],"right_children":[2,-1,-1],"split_conditions":[2.45E0,8.5736535E-2,-9.7021006E-2],"split_indices":[2,0,0],"split_type":[0,0,0],"sum_hessian":[3.0121398E0,1.2706985E0,1.7414412E0],"tree_param":{"num_deleted":"0","num_feature":"4","num_nodes":"3","size_leaf_vector":"0"}},{"base_weights":[4.260724E-3,7.621575E-2,-1.5910743E-1,-1.1805441E-1,1.6748424E-1,3.1771013E-1,1.2773189E-2,-1.8730597E-1,1.9414823E-1],"categories":[],"categories_nodes":[],"categories_segments":[],"categories_sizes":[],"default_left":[1,1,0,0,1,0,1,0,0],"id":46,"left_children":[1,3,-1,-1,5,-1,7,-1,-1],"loss_changes":[9.6832976E-2,1.2045923E-1,0E0,0E0,9.534624E-2,0E0,1.5063798E-1,0E0,0E0],"parents":[2147483647,0,0,1,1,4,4,6,6],"right_children":[2,4,-1,-1,6,-1,8,-1,-1],"split_conditions":[5.05E0,5.45E0,-4.773223E-2,-3.5416324E-2,5.95E0,9.531304E-2,6.1499996E0,-5.6191795E-2,5.824447E-2],"split_indices":[2,0,0,0,0,0,0,0,0],"split_type":[0,0,0,0,0,0,0,0,0],"sum_hessian":[6.205898E0,4.6786656E0,1.5272322E0,1.4016625E0,3.277003E0,1.1280677E0,2.1489353E0,1.0062343E0,1.142701E0],"tree_param":{"num_deleted":"0","num_feature":"4","num_nodes":"9","size_leaf_vector":"0"}},{"base_weights":[2.905848E-2,-9.1622815E-2,3.0787122E-1,5.387084E-2,-3.7626094E-1,-1.4445284E-1,3.321163E-1,7.892783E-2,-3.1078577E-1],"categories":[],"categories_nodes":[],"categories_segments":[],"categories_sizes":[],"default_left":[1,1,0,1,0,1,0,0,0],"id":47,"left_children":[1,3,-1,5,-1,7,-1,-1,-1],"loss_changes":[2.678382E-1,2.580239E-1,0E0,3.0589214E-1,0E0,1.518149E-1,0E0,0E0,0E0],"parents":[2147483647,0,0,1,1,3,3,5,5],"right_children":[2,4,-1,6,-1,8,-1,-1,-1],"split_conditions":[5.1499996E0,3.05E0,9.236137E-2,1.75E0,-1.12878285E-1,2.55E0,9.963489E-2,2.367835E-2,-9.323573E-2],"split_indices":[2,1,0,3,0,1,0,0,0],"split_type":[0,0,0,0,0,0,0,0,0],"sum_hessian":[6.1217856E0,4.741051E0,1.3807342E0,3.673877E0,1.0671744E0,2.4257386E0,1.2481383E0,1.2596053E0,1.1661334E0],"tree_param":{"num_deleted":"0","num_feature":"4","num_nodes":"9","size_leaf_vector":"0"}},{"base_weights":[-5.6840345E-2,2.6738656E-1,-3.059066E-1],"categories":[],"categories_nodes":[],"categories_segments":[],"categories_sizes":[],"default_left":[1,0,0],"id":48,"left_children":[1,-1,-1],"loss_changes":[3.739679E-1,0E0,0E0],"parents":[2147483647,0,0],"right_children":[2,-1,-1],"split_conditions":[2.45E0,8.021597E-2,-9.177198E-2],"split_indices":[2,0,0],"split_type":[0,0,0],"sum_hessian":[2.6180584E0,1.1054548E0,1.5126036E0],"tree_param":{"num_deleted":"0","num_feature":"4","num_nodes":"3","size_leaf_vector":"0"}},{"base_weights":[6.4831288E-3,8.667771E-2,-1.1493059E-1,-1.0352735E-1,1.9276106E-1,3.0255288E-1,1.43810855E-2],"categories":[],"categories_nodes":[],"categories_segments":[],"categories_sizes":[],"default_left":[1,1,0,0,1,0,0],"id":49,"left_children":[1,3,-1,-1,5,-1,-1],"loss_changes":[7.584401E-2,1.1367975E-1,0E0,0E0,6.089087E-2,0E0,0E0],"parents":[2147483647,0,0,1,1,4,4],"right_children":[2,4,-1,-1,6,-1,-1],"split_conditions":[4.95E0,5.45E0,-3.447918E-2,-3.1058207E-2,5.95E0,9.076586E-2,4.3143257E-3],"split_indices":[2,0,0,0,0,0,0],"split_type":[0,0,0,0,0,0,0],"sum_hessian":[5.7663517E0,3.6449404E0,2.1214113E0,1.3136642E0,2.331276E0,1.0121741E0,1.3191018E0],"tree_param":{"num_deleted":"0","num_feature":"4","num_nodes":"7","size_leaf_vector":"0"}},{"base_weights":[2.447623E-2,-8.6696304E-2,2.8713137E-1,-2.2145914E-1,7.069582E-2,-2.7082226E-1,-5.8835737E-2],"categories":[],"categories_nodes":[],"categories_segments":[],"categories_sizes":[],"default_left":[1,1,0,1,0,0,0],"id":50,"left_children":[1,3,-1,5,-1,-1,-1],"loss_changes":[2.1790308E-1,1.3045399E-1,0E0,9.414956E-3,0E0,0E0,0E0],"parents":[2147483647,0,0,1,1,3,3],"right_children":[2,4,-1,6,-1,-1,-1],"split_conditions":[5.1499996E0,1.6500001E0,8.613941E-2,4.6499996E0,2.1208746E-2,-8.124668E-2,-1.7650722E-2],"split_indices":[2,3,0,2,0,0,0],"split_type":[0,0,0,0,0,0,0],"sum_hessian":[5.6099176E0,4.4122806E0,1.1976372E0,2.157729E0,2.2545514E0,1.1448762E0,1.0128525E0],"tree_param":{"num_deleted":"0","num_feature":"4","num_nodes":"7","size_leaf_vector":"0"}},{"base_weights":[-5.479365E-2,2.2030573E-1,-2.8232974E-1],"categories":[],"categories_nodes":[],"categories_segments":[],"categories_sizes":[],"default_left":[1,0,0],"id":51,"left_children":[1,-1,-1],"loss_changes":[2.6990512E-1,0E0,0E0],"parents":[2147483647,0,0],"right_children":[2,-1,-1],"split_conditions":[3.4E0,6.6091724E-2,-8.469892E-2],"split_indices":[2,0,0],"split_type":[0,0,0],"sum_hessian":[2.3182547E0,1.0638266E0,1.2544281E0],"tree_param":{"num_deleted":"0","num_feature":"4","num_nodes":"3","size_leaf_vector":"0"}},{"base_weights":[9.524444E-3,8.068466E-2,-1.0851708E-1,-1.0137924E-1,1.6963205E-1,2.3686697E-1,3.344936E-2],"categories":[],"categories_nodes":[],"categories_segments":[],"categories_sizes":[],"default_left":[1,1,0,0,1,0,0],"id":52,"left_children":[1,3,-1,-1,5,-1,-1],"loss_changes":[6.320553E-2,9.1977835E-2,0E0,0E0,2.3906484E-2,0E0,0E0],"parents":[2147483647,0,0,1,1,4,4],"right_children":[2,4,-1,-1,6,-1,-1],"split_conditions":[1.75E0,5.3500004E0,-3.2555126E-2,-3.0413773E-2,4.95E0,7.106009E-2,1.0034808E-2],"split_indices":[3,0,0,0,2,0,0],"split_type":[0,0,0,0,0,0,0],"sum_hessian":[5.4822354E0,3.6177695E0,1.8644661E0,1.1414998E0,2.4762697E0,1.1628335E0,1.3134363E0],"tree_param":{"num_deleted":"0","num_feature":"4","num_nodes":"7","size_leaf_vector":"0"}},{"base_weights":[1.9084366E-2,-8.2388364E-2,2.686877E-1,-2.1076879E-1,6.381928E-2,-2.554206E-1,-6.0867935E-2],"categories":[],"categories_nodes":[],"categories_segments":[],"categories_sizes":[],"default_left":[1,1,0,1,0,0,0],"id":53,"left_children":[1,3,-1,5,-1,-1,-1],"loss_changes":[1.8150018E-1,1.11783125E-1,0E0,4.6792924E-3,0E0,0E0,0E0],"parents":[2147483647,0,0,1,1,3,3],"right_children":[2,4,-1,6,-1,-1,-1],"split_conditions":[5.1499996E0,1.6500001E0,8.060631E-2,4.6499996E0,1.9145785E-2,-7.662618E-2,-1.8260382E-2],"split_indices":[2,3,0,2,0,0,0],"split_type":[0,0,0,0,0,0,0],"sum_hessian":[5.2920036E0,4.23873E0,1.0532734E0,2.0218418E0,2.2168884E0,1.0154374E0,1.0064044E0],"tree_param":{"num_deleted":"0","num_feature":"4","num_nodes":"7","size_leaf_vector":"0"}},{"base_weights":[-5.1681682E-2,1.7618608E-1,-2.567901E-1],"categories":[],"categories_nodes":[],"categories_segments":[],"categories_sizes":[],"default_left":[1,0,0],"id":54,"left_children":[1,-1,-1],"loss_changes":[1.8940769E-1,0E0,0E0],"parents":[2147483647,0,0],"right_children":[2,-1,-1],"split_conditions":[3.65E0,5.2855827E-2,-7.703704E-2],"split_indices":[2,0,0],"split_type":[0,0,0],"sum_hessian":[2.0845585E0,1.0542909E0,1.0302676E0],"tree_param":{"num_deleted":"0","num_feature":"4","num_nodes":"3","size_leaf_vector":"0"}},{"base_weights":[1.2095932E-2,8.107993E-2,-9.09117E-2,-8.7989904E-2,1.7308359E-1],"categories":[],"categories_nodes":[],"categories_segments":[],"categories_sizes":[],"default_left":[1,1,0,0,0],"id":55,"left_children":[1,3,-1,-1,-1],"loss_changes":[5.147375E-2,8.1272006E-2,0E0,0E0,0E0],"parents":[2147483647,0,0,1,1],"right_children":[2,4,-1,-1,-1],"split_conditions":[4.95E0,5.45E0,-2.7273512E-2,-2.6396973E-2,5.1925078E-2],"split_indices":[2,0,0,0,0],"split_type":[0,0,0,0,0],"sum_hessian":[5.2065005E0,3.245722E0,1.9607786E0,1.1591835E0,2.0865386E0],"tree_param":{"num_deleted":"0","num_feature":"4","num_nodes":"5","size_leaf_vector":"0"}},{"base_weights":[1.4085103E-2,-1.2236755E-1,1.6182932E-1,-2.7931756E-1,6.482397E-2],"categories":[],"categories_nodes":[],"categories_segments":[],"categories_sizes":[],"default_left":[1,1,0,0,0],"id":56,"left_children":[1,3,-1,-1,-1],"loss_changes":[1.4052247E-1,1.262947E-1,0E0,0E0,0E0],"parents":[2147483647,0,0,1,1],"right_children":[2,4,-1,-1,-1],"split_conditions":[4.95E0,1.6E0,4.85488E-2,-8.379527E-2,1.9447193E-2],"split_indices":[2,3,0,0,0],"split_type":[0,0,0,0,0],"sum_hessian":[4.988058E0,2.682413E0,2.305645E0,1.1913673E0,1.4910458E0],"tree_param":{"num_deleted":"0","num_feature":"4","num_nodes":"5","size_leaf_vector":"0"}},{"base_weights":[-5.210732E-2],"categories":[],"categories_nodes":[],"categories_segments":[],"categories_sizes":[],"default_left":[0],"id":57,"left_children":[-1],"loss_changes":[0E0],"parents":[2147483647],"right_children":[-1],"split_conditions":[-1.5632197E-2],"split_indices":[0],"split_type":[0],"sum_hessian":[1.9108468E0],"tree_param":{"num_deleted":"0","num_feature":"4","num_nodes":"1","size_leaf_vector":"0"}},{"base_weights":[1.5009222E-2,7.97855E-2,-9.0637036E-2,-7.8616306E-2,1.6076222E-1],"categories":[],"categories_nodes":[],"categories_segments":[],"categories_sizes":[],"default_left":[1,1,0,0,0],"id":58,"left_children":[1,3,-1,-1,-1],"loss_changes":[4.8424877E-2,6.7323826E-2,0E0,0E0,0E0],"parents":[2147483647,0,0,1,1],"right_children":[2,4,-1,-1,-1],"split_conditions":[1.75E0,5.45E0,-2.7191112E-2,-2.3584893E-2,4.822867E-2],"split_indices":[3,0,0,0,0],"split_type":[0,0,0,0,0],"sum_hessian":[5.019453E0,3.2633429E0,1.7561101E0,1.1137807E0,2.1495621E0],"tree_param":{"num_deleted":"0","num_feature":"4","num_nodes":"5","size_leaf_vector":"0"}},{"base_weights":[1.0634293E-2,1.04403414E-1,-1.9548365E-1,-7.1789056E-2,3.1792542E-1,1.01657964E-1,-2.2026879E-1],"categories":[],"categories_nodes":[],"categories_segments":[],"categories_sizes":[],"default_left":[1,1,0,1,0,0,0],"id":59,"left_children":[1,3,-1,5,-1,-1,-1],"loss_changes":[1.3187292E-1,1.9647059E-1,0E0,1.085294E-1,0E0,0E0,0E0],"parents":[2147483647,0,0,1,1,3,3],"right_children":[2,4,-1,6,-1,-1,-1],"split_conditions":[3.05E0,1.75E0,-5.86451E-2,2.65E0,9.537763E-2,3.049739E-2,-6.608064E-2],"split_indices":[1,3,0,1,0,0,0],"split_type":[0,0,0,0,0,0,0],"sum_hessian":[4.7671075E0,3.6156976E0,1.15141E0,2.3447013E0,1.2709965E0,1.2268703E0,1.1178309E0],"tree_param":{"num_deleted":"0","num_feature":"4","num_nodes":"7","size_leaf_vector":"0"}},{"base_weights":[-4.8332993E-2],"categories":[],"categories_nodes":[],"categories_segments":[],"categories_sizes":[],"default_left":[0],"id":60,"left_children":[-1],"loss_changes":[0E0],"parents":[2147483647],"right_children":[-1],"split_conditions":[-1.4499898E-2],"split_indices":[0],"split_type":[0],"sum_hessian":[1.8610334E0],"tree_param":{"num_deleted":"0","num_feature":"4","num_nodes":"1","size_leaf_vector":"0"}},{"base_weights":[1.3076892E-2,7.688656E-2,-8.117078E-2,-7.2571024E-2,1.5914986E-1],"categories":[],"categories_nodes":[],"categories_segments":[],"categories_sizes":[],"default_left":[1,1,0,0,0],"id":61,"left_children":[1,3,-1,-1,-1],"loss_changes":[4.146922E-2,6.080891E-2,0E0,0E0,0E0],"parents":[2147483647,0,0,1,1],"right_children":[2,4,-1,-1,-1],"split_conditions":[4.95E0,5.45E0,-2.4351235E-2,-2.1771308E-2,4.774496E-2],"split_indices":[2,0,0,0,0],"split_type":[0,0,0,0,0],"sum_hessian":[4.8577967E0,3.006486E0,1.8513107E0,1.1091609E0,1.897325E0],"tree_param":{"num_deleted":"0","num_feature":"4","num_nodes":"5","size_leaf_vector":"0"}},{"base_weights":[1.1034646E-2,1.0326622E-1,-1.8542232E-1,-5.769128E-2,3.010248E-1,9.839295E-2,-1.9796169E-1],"categories":[],"categories_nodes":[],"categories_segments":[],"categories_sizes":[],"default_left":[1,1,0,1,0,0,0],"id":62,"left_children":[1,3,-1,5,-1,-1,-1],"loss_changes":[1.2043493E-1,1.588964E-1,0E0,9.151837E-2,0E0,0E0,0E0],"parents":[2147483647,0,0,1,1,3,3],"right_children":[2,4,-1,6,-1,-1,-1],"split_conditions":[3.05E0,1.75E0,-5.5626698E-2,2.65E0,9.0307444E-2,2.9517885E-2,-5.9388507E-2],"split_indices":[1,3,0,1,0,0,0],"split_type":[0,0,0,0,0,0,0],"sum_hessian":[4.589937E0,3.4463298E0,1.1436075E0,2.2904148E0,1.1559151E0,1.2254065E0,1.0650083E0],"tree_param":{"num_deleted":"0","num_feature":"4","num_nodes":"7","size_leaf_vector":"0"}},{"base_weights":[-4.539413E-2],"categories":[],"categories_nodes":[],"categories_segments":[],"categories_sizes":[],"default_left":[0],"id":63,"left_children":[-1],"loss_changes":[0E0],"parents":[2147483647],"right_children":[-1],"split_conditions":[-1.3618239E-2],"split_indices":[0],"split_type":[0],"sum_hessian":[1.8204912E0],"tree_param":{"num_deleted":"0","num_feature":"4","num_nodes":"1","size_leaf_vector":"0"}},{"base_weights":[1.1715848E-2,7.200069E-2,-7.7338055E-2,-6.6795036E-2,1.4968519E-1],"categories":[],"categories_nodes":[],"categories_segments":[],"categories_sizes":[],"default_left":[1,1,0,0,0],"id":64,"left_children":[1,3,-1,-1,-1],"loss_changes":[3.638319E-2,5.248738E-2,0E0,0E0,0E0],"parents":[2147483647,0,0,1,1],"right_children":[2,4,-1,-1,-1],"split_conditions":[4.95E0,5.45E0,-2.3201417E-2,-2.0038512E-2,4.490556E-2],"split_indices":[2,0,0,0,0],"split_type":[0,0,0,0,0],"sum_hessian":[4.739819E0,2.9406476E0,1.7991716E0,1.1055615E0,1.8350861E0],"tree_param":{"num_deleted":"0","num_feature":"4","num_nodes":"5","size_leaf_vector":"0"}},{"base_weights":[1.1137719E-2,-1.4375141E-1,1.1999772E-1,-6.198656E-2,2.9081944E-1],"categories":[],"categories_nodes":[],"categories_segments":[],"categories_sizes":[],"default_left":[1,0,1,0,0],"id":65,"left_children":[1,-1,3,-1,-1],"loss_changes":[1.09272555E-1,0E0,1.3460535E-1,0E0,0E0],"parents":[2147483647,0,0,2,2],"right_children":[2,-1,4,-1,-1],"split_conditions":[5.95E0,-4.3125425E-2,1.75E0,-1.8595967E-2,8.724584E-2],"split_indices":[0,0,3,0,0],"split_type":[0,0,0,0,0],"sum_hessian":[4.457651E0,1.7075638E0,2.7500873E0,1.6400225E0,1.1100647E0],"tree_param":{"num_deleted":"0","num_feature":"4","num_nodes":"5","size_leaf_vector":"0"}},{"base_weights":[-4.1066926E-2],"categories":[],"categories_nodes":[],"categories_segments":[],"categories_sizes":[],"default_left":[0],"id":66,"left_children":[-1],"loss_changes":[0E0],"parents":[2147483647],"right_children":[-1],"split_conditions":[-1.2320078E-2],"split_indices":[0],"split_type":[0],"sum_hessian":[1.7787236E0],"tree_param":{"num_deleted":"0","num_feature":"4","num_nodes":"1","size_leaf_vector":"0"}},{"base_weights":[7.865855E-3,5.1061757E-2,-9.172513E-2,-6.840164E-2,1.0858413E-1,-6.646787E-2,2.089837E-1],"categories":[],"categories_nodes":[],"categories_segments":[],"categories_sizes":[],"default_left":[1,1,0,0,1,0,0],"id":67,"left_children":[1,3,-1,-1,5,-1,-1],"loss_changes":[2.8991796E-2,3.8924478E-2,0E0,0E0,7.505762E-2,0E0,0E0],"parents":[2147483647,0,0,1,1,4,4],"right_children":[2,4,-1,-1,6,-1,-1],"split_conditions":[5.05E0,5.45E0,-2.751754E-2,-2.0520493E-2,2.85E0,-1.9940361E-2,6.2695116E-2],"split_indices":[2,0,0,0,1,0,0],"split_type":[0,0,0,0,0,0,0],"sum_hessian":[4.6505313E0,3.5835238E0,1.0670073E0,1.1032159E0,2.4803078E0,1.0272352E0,1.4530727E0],"tree_param":{"num_deleted":"0","num_feature":"4","num_nodes":"7","size_leaf_vector":"0"}},{"base_weights":[1.3027974E-2,9.85827E-2,-1.6924202E-1,-5.2493177E-2,2.8663906E-1,9.620713E-2,-1.872469E-1],"categories":[],"categories_nodes":[],"categories_segments":[],"categories_sizes":[],"default_left":[1,1,0,1,0,0,0],"id":68,"left_children":[1,3,-1,5,-1,-1,-1],"loss_changes":[1.0007075E-1,1.36391E-1,0E0,8.240867E-2,0E0,0E0,0E0],"parents":[2147483647,0,0,1,1,3,3],"right_children":[2,4,-1,6,-1,-1,-1],"split_conditions":[3.05E0,1.75E0,-5.077261E-2,2.65E0,8.5991725E-2,2.886214E-2,-5.6174073E-2],"split_indices":[1,3,0,1,0,0,0],"split_type":[0,0,0,0,0,0,0],"sum_hessian":[4.3473196E0,3.2710695E0,1.0762504E0,2.2136161E0,1.0574533E0,1.1883395E0,1.0252767E0],"tree_param":{"num_deleted":"0","num_feature":"4","num_nodes":"7","size_leaf_vector":"0"}},{"base_weights":[-3.9118655E-2],"categories":[],"categories_nodes":[],"categories_segments":[],"categories_sizes":[],"default_left":[0],"id":69,"left_children":[-1],"loss_changes":[0E0],"parents":[2147483647],"right_children":[-1],"split_conditions":[-1.1735597E-2],"split_indices":[0],"split_type":[0],"sum_hessian":[1.7500956E0],"tree_param":{"num_deleted":"0","num_feature":"4","num_nodes":"1","size_leaf_vector":"0"}},{"base_weights":[6.822568E-3,6.1474178E-2,-7.3136486E-2,-6.261155E-2,1.3434085E-1],"categories":[],"categories_nodes":[],"categories_segments":[],"categories_sizes":[],"default_left":[1,1,0,0,0],"id":70,"left_children":[1,3,-1,-1,-1],"loss_changes":[2.8690102E-2,4.305949E-2,0E0,0E0,0E0],"parents":[2147483647,0,0,1,1],"right_children":[2,4,-1,-1,-1],"split_conditions":[4.95E0,5.45E0,-2.1940947E-2,-1.8783465E-2,4.0302258E-2],"split_indices":[2,0,0,0,0],"split_type":[0,0,0,0,0],"sum_hessian":[4.5365443E0,2.832039E0,1.7045052E0,1.0998415E0,1.7321976E0],"tree_param":{"num_deleted":"0","num_feature":"4","num_nodes":"5","size_leaf_vector":"0"}},{"base_weights":[1.3387057E-2,-1.05515905E-1,1.3885182E-1,7.6668155E-3,-1.6290544E-1],"categories":[],"categories_nodes":[],"categories_segments":[],"categories_sizes":[],"default_left":[1,1,0,0,0],"id":71,"left_children":[1,3,-1,-1,-1],"loss_changes":[9.244252E-2,2.2330105E-2,0E0,0E0,0E0],"parents":[2147483647,0,0,1,1],"right_children":[2,4,-1,-1,-1],"split_conditions":[4.95E0,2.85E0,4.1655548E-2,2.3000448E-3,-4.8871633E-2],"split_indices":[2,1,0,0,0],"split_type":[0,0,0,0,0],"sum_hessian":[4.2145567E0,2.245498E0,1.9690588E0,1.0470096E0,1.1984884E0],"tree_param":{"num_deleted":"0","num_feature":"4","num_nodes":"5","size_leaf_vector":"0"}},{"base_weights":[-3.595335E-2],"categories":[],"categories_nodes":[],"categories_segments":[],"categories_sizes":[],"default_left":[0],"id":72,"left_children":[-1],"loss_changes":[0E0],"parents":[2147483647],"right_children":[-1],"split_conditions":[-1.0786005E-2],"split_indices":[0],"split_type":[0],"sum_hessian":[1.7142428E0],"tree_param":{"num_deleted":"0","num_feature":"4","num_nodes":"1","size_leaf_vector":"0"}},{"base_weights":[6.9313375E-3,6.295944E-2,-8.618795E-2,-5.957009E-2,1.2974414E-1],"categories":[],"categories_nodes":[],"categories_segments":[],"categories_sizes":[],"default_left":[1,1,0,0,0],"id":73,"left_children":[1,3,-1,-1,-1],"loss_changes":[3.405728E-2,4.0494658E-2,0E0,0E0,0E0],"parents":[2147483647,0,0,1,1],"right_children":[2,4,-1,-1,-1],"split_conditions":[1.75E0,5.45E0,-2.5856387E-2,-1.7871028E-2,3.8923245E-2],"split_indices":[3,0,0,0,0],"split_type":[0,0,0,0,0],"sum_hessian":[4.487695E0,3.0040808E0,1.4836142E0,1.097864E0,1.9062169E0],"tree_param":{"num_deleted":"0","num_feature":"4","num_nodes":"5","size_leaf_vector":"0"}},{"base_weights":[1.15614645E-2,-9.526976E-2,1.3938476E-1,7.76191E-2,-2.1937908E-1],"categories":[],"categories_nodes":[],"categories_segments":[],"categories_sizes":[],"default_left":[1,1,0,0,0],"id":74,"left_children":[1,3,-1,-1,-1],"loss_changes":[8.361391E-2,8.9976E-2,0E0,0E0,0E0],"parents":[2147483647,0,0,1,1],"right_children":[2,4,-1,-1,-1],"split_conditions":[1.75E0,2.65E0,4.181543E-2,2.328573E-2,-6.581373E-2],"split_indices":[3,1,0,0,0],"split_type":[0,0,0,0,0],"sum_hessian":[4.1506467E0,2.3997102E0,1.7509364E0,1.1593223E0,1.2403879E0],"tree_param":{"num_deleted":"0","num_feature":"4","num_nodes":"5","size_leaf_vector":"0"}},{"base_weights":[-3.3632543E-2],"categories":[],"categories_nodes":[],"categories_segments":[],"categories_sizes":[],"default_left":[0],"id":75,"left_children":[-1],"loss_changes":[0E0],"parents":[2147483647],"right_children":[-1],"split_conditions":[-1.0089763E-2],"split_indices":[0],"split_type":[0],"sum_hessian":[1.6762569E0],"tree_param":{"num_deleted":"0","num_feature":"4","num_nodes":"1","size_leaf_vector":"0"}},{"base_weights":[6.7386427E-3,5.586058E-2,-6.638144E-2,-4.87011E-2,1.3025212E-1],"categories":[],"categories_nodes":[],"categories_segments":[],"categories_sizes":[],"default_left":[1,1,0,0,0],"id":76,"left_children":[1,3,-1,-1,-1],"loss_changes":[2.3073582E-2,3.5653226E-2,0E0,0E0,0E0],"parents":[2147483647,0,0,1,1],"right_children":[2,4,-1,-1,-1],"split_conditions":[4.95E0,5.6499996E0,-1.9914433E-2,-1.4610331E-2,3.907564E-2],"split_indices":[2,0,0,0,0],"split_type":[0,0,0,0,0],"sum_hessian":[4.3915796E0,2.7680514E0,1.6235285E0,1.294249E0,1.4738022E0],"tree_param":{"num_deleted":"0","num_feature":"4","num_nodes":"5","size_leaf_vector":"0"}},{"base_weights":[1.0656841E-2,-1.374857E-1,1.1717021E-1,2.1628888E-2,1.6064045E-1],"categories":[],"categories_nodes":[],"categories_segments":[],"categories_sizes":[],"default_left":[1,0,1,0,0],"id":77,"left_children":[1,-1,3,-1,-1],"loss_changes":[9.5584676E-2,0E0,1.093689E-2,0E0,0E0],"parents":[2147483647,0,0,2,2],"right_children":[2,-1,4,-1,-1],"split_conditions":[5.95E0,-4.124571E-2,1.6500001E0,6.488667E-3,4.8192136E-2],"split_indices":[0,0,3,0,0],"split_type":[0,0,0,0,0],"sum_hessian":[4.036735E0,1.5667962E0,2.4699388E0,1.2406735E0,1.2292652E0],"tree_param":{"num_deleted":"0","num_feature":"4","num_nodes":"5","size_leaf_vector":"0"}},{"base_weights":[-3.1971335E-2],"categories":[],"categories_nodes":[],"categories_segments":[],"categories_sizes":[],"default_left":[0],"id":78,"left_children":[-1],"loss_changes":[0E0],"parents":[2147483647],"right_children":[-1],"split_conditions":[-9.591401E-3],"split_indices":[0],"split_type":[0],"sum_hessian":[1.6510855E0],"tree_param":{"num_deleted":"0","num_feature":"4","num_nodes":"1","size_leaf_vector":"0"}},{"base_weights":[5.7647224E-3,5.24284E-2,-7.288832E-2,-5.7086725E-2,1.1450021E-1],"categories":[],"categories_nodes":[],"categories_segments":[],"categories_sizes":[],"default_left":[1,1,0,0,0],"id":79,"left_children":[1,3,-1,-1,-1],"loss_changes":[2.3464145E-2,3.332428E-2,0E0,0E0,0E0],"parents":[2147483647,0,0,1,1],"right_children":[2,4,-1,-1,-1],"split_conditions":[1.75E0,5.45E0,-2.1866497E-2,-1.7126018E-2,3.4350064E-2],"split_indices":[3,0,0,0,0],"split_type":[0,0,0,0,0],"sum_hessian":[4.351891E0,2.9406621E0,1.411229E0,1.0928414E0,1.8478208E0],"tree_param":{"num_deleted":"0","num_feature":"4","num_nodes":"5","size_leaf_vector":"0"}},{"base_weights":[1.0813114E-2,-1.2521525E-1,1.08563155E-1,1.8650448E-2,1.4997344E-1],"categories":[],"categories_nodes":[],"categories_segments":[],"categories_sizes":[],"default_left":[1,0,1,0,0],"id":80,"left_children":[1,-1,3,-1,-1],"loss_changes":[7.987879E-2,0E0,9.997178E-3,0E0,0E0],"parents":[2147483647,0,0,2,2],"right_children":[2,-1,4,-1,-1],"split_conditions":[5.95E0,-3.7564576E-2,1.6500001E0,5.5951346E-3,4.4992033E-2],"split_indices":[0,0,3,0,0],"split_type":[0,0,0,0,0],"sum_hessian":[3.9850445E0,1.5487875E0,2.436257E0,1.2255799E0,1.2106771E0],"tree_param":{"num_deleted":"0","num_feature":"4","num_nodes":"5","size_leaf_vector":"0"}},{"base_weights":[-2.9771313E-2],"categories":[],"categories_nodes":[],"categories_segments":[],"categories_sizes":[],"default_left":[0],"id":81,"left_children":[-1],"loss_changes":[0E0],"parents":[2147483647],"right_children":[-1],"split_conditions":[-8.931395E-3],"split_indices":[0],"split_type":[0],"sum_hessian":[1.6260561E0],"tree_param":{"num_deleted":"0","num_feature":"4","num_nodes":"1","size_leaf_vector":"0"}},{"base_weights":[4.0301555E-3,4.558573E-2,-6.6361085E-2,-5.8230285E-2,1.0602166E-1],"categories":[],"categories_nodes":[],"categories_segments":[],"categories_sizes":[],"default_left":[1,1,0,0,0],"id":82,"left_children":[1,3,-1,-1,-1],"loss_changes":[1.8533682E-2,3.0809522E-2,0E0,0E0,0E0],"parents":[2147483647,0,0,1,1],"right_children":[2,4,-1,-1,-1],"split_conditions":[1.75E0,5.45E0,-1.9908326E-2,-1.7469086E-2,3.18065E-2],"split_indices":[3,0,0,0,0],"split_type":[0,0,0,0,0],"sum_hessian":[4.3018036E0,2.926522E0,1.3752818E0,1.0902319E0,1.83629E0],"tree_param":{"num_deleted":"0","num_feature":"4","num_nodes":"5","size_leaf_vector":"0"}},{"base_weights":[1.1533534E-2,-1.18764855E-1,1.0571442E-1,1.4170635E-1,1.7820027E-2],"categories":[],"categories_nodes":[],"categories_segments":[],"categories_sizes":[],"default_left":[1,0,1,0,0],"id":83,"left_children":[1,-1,3,-1,-1],"loss_changes":[7.3005065E-2,0E0,8.193787E-3,0E0,0E0],"parents":[2147483647,0,0,2,2],"right_children":[2,-1,4,-1,-1],"split_conditions":[5.95E0,-3.562946E-2,6.25E0,4.2511906E-2,5.346008E-3],"split_indices":[0,0,0,0,0],"split_type":[0,0,0,0,0],"sum_hessian":[3.925994E0,1.5376457E0,2.388348E0,1.2601105E0,1.1282377E0],"tree_param":{"num_deleted":"0","num_feature":"4","num_nodes":"5","size_leaf_vector":"0"}},{"base_weights":[-2.8766686E-2],"categories":[],"categories_nodes":[],"categories_segments":[],"categories_sizes":[],"default_left":[0],"id":84,"left_children":[-1],"loss_changes":[0E0],"parents":[2147483647],"right_children":[-1],"split_conditions":[-8.630007E-3],"split_indices":[0],"split_type":[0],"sum_hessian":[1.6076235E0],"tree_param":{"num_deleted":"0","num_feature":"4","num_nodes":"1","size_leaf_vector":"0"}},{"base_weights":[3.153115E-3,-6.481474E-2,4.618046E-2,1.291837E-1,-4.6595957E-2],"categories":[],"categories_nodes":[],"categories_segments":[],"categories_sizes":[],"default_left":[1,0,1,0,0],"id":85,"left_children":[1,-1,3,-1,-1],"loss_changes":[1.8375749E-2,0E0,3.531972E-2,0E0,0E0],"parents":[2147483647,0,0,2,2],"right_children":[2,-1,4,-1,-1],"split_conditions":[5.8500004E0,-1.9444423E-2,4.95E0,3.875511E-2,-1.3978788E-2],"split_indices":[0,0,2,0,0],"split_type":[0,0,0,0,0],"sum_hessian":[4.259942E0,1.4550774E0,2.8048644E0,1.2732873E0,1.5315772E0],"tree_param":{"num_deleted":"0","num_feature":"4","num_nodes":"5","size_leaf_vector":"0"}},{"base_weights":[1.1971522E-2,-1.1266191E-1,1.0237723E-1,1.3456011E-1,1.9809108E-2],"categories":[],"categories_nodes":[],"categories_segments":[],"categories_sizes":[],"default_left":[1,0,1,0,0],"id":86,"left_children":[1,-1,3,-1,-1],"loss_changes":[6.652609E-2,0E0,6.243311E-3,0E0,0E0],"parents":[2147483647,0,0,2,2],"right_children":[2,-1,4,-1,-1],"split_conditions":[5.95E0,-3.3798575E-2,6.25E0,4.0368035E-2,5.9427326E-3],"split_indices":[0,0,0,0,0],"split_type":[0,0,0,0,0],"sum_hessian":[3.8805602E0,1.5279478E0,2.3526125E0,1.2397174E0,1.112895E0],"tree_param":{"num_deleted":"0","num_feature":"4","num_nodes":"5","size_leaf_vector":"0"}},{"base_weights":[-2.9724099E-2],"categories":[],"categories_nodes":[],"categories_segments":[],"categories_sizes":[],"default_left":[0],"id":87,"left_children":[-1],"loss_changes":[0E0],"parents":[2147483647],"right_children":[-1],"split_conditions":[-8.91723E-3],"split_indices":[0],"split_type":[0],"sum_hessian":[1.5900006E0],"tree_param":{"num_deleted":"0","num_feature":"4","num_nodes":"1","size_leaf_vector":"0"}},{"base_weights":[3.5020958E-3,4.6621643E-2,-6.958443E-2,-5.8969002E-2,1.0848801E-1],"categories":[],"categories_nodes":[],"categories_segments":[],"categories_sizes":[],"default_left":[1,1,0,0,0],"id":88,"left_children":[1,3,-1,-1,-1],"loss_changes":[1.9730553E-2,3.1802416E-2,0E0,0E0,0E0],"parents":[2147483647,0,0,1,1],"right_children":[2,4,-1,-1,-1],"split_conditions":[1.75E0,5.45E0,-2.087533E-2,-1.7690701E-2,3.2546405E-2],"split_indices":[3,0,0,0,0],"split_type":[0,0,0,0,0],"sum_hessian":[4.231361E0,2.8890085E0,1.3423522E0,1.0846355E0,1.8043731E0],"tree_param":{"num_deleted":"0","num_feature":"4","num_nodes":"5","size_leaf_vector":"0"}},{"base_weights":[1.209616E-2,-7.729656E-2,1.2125176E-1,8.582171E-2,-2.0056629E-1],"categories":[],"categories_nodes":[],"categories_segments":[],"categories_sizes":[],"default_left":[1,1,0,0,0],"id":89,"left_children":[1,3,-1,-1,-1],"loss_changes":[5.6696393E-2,8.310574E-2,0E0,0E0,0E0],"parents":[2147483647,0,0,1,1],"right_children":[2,4,-1,-1,-1],"split_conditions":[1.75E0,2.65E0,3.637553E-2,2.5746515E-2,-6.016989E-2],"split_indices":[3,1,0,0,0],"split_type":[0,0,0,0,0],"sum_hessian":[3.84991E0,2.2770188E0,1.5728911E0,1.1108549E0,1.166164E0],"tree_param":{"num_deleted":"0","num_feature":"4","num_nodes":"5","size_leaf_vector":"0"}},{"base_weights":[-2.825696E-2],"categories":[],"categories_nodes":[],"categories_segments":[],"categories_sizes":[],"default_left":[0],"id":90,"left_children":[-1],"loss_changes":[0E0],"parents":[2147483647],"right_children":[-1],"split_conditions":[-8.477088E-3],"split_indices":[0],"split_type":[0],"sum_hessian":[1.5614806E0],"tree_param":{"num_deleted":"0","num_feature":"4","num_nodes":"1","size_leaf_vector":"0"}},{"base_weights":[3.4989852E-3,4.8356198E-2,-6.102495E-2,-5.2525606E-2,1.258654E-1],"categories":[],"categories_nodes":[],"categories_segments":[],"categories_sizes":[],"default_left":[1,1,0,0,0],"id":91,"left_children":[1,3,-1,-1,-1],"loss_changes":[1.7881917E-2,3.4768283E-2,0E0,0E0,0E0],"parents":[2147483647,0,0,1,1],"right_children":[2,4,-1,-1,-1],"split_conditions":[4.95E0,5.6499996E0,-1.8307485E-2,-1.5757682E-2,3.775962E-2],"split_indices":[2,0,0,0,0],"split_type":[0,0,0,0,0],"sum_hessian":[4.1586404E0,2.600993E0,1.5576477E0,1.2701564E0,1.3308365E0],"tree_param":{"num_deleted":"0","num_feature":"4","num_nodes":"5","size_leaf_vector":"0"}},{"base_weights":[1.1407046E-2,-1.1325817E-1,1.0309291E-1,1.2954557E-1,2.5357693E-2],"categories":[],"categories_nodes":[],"categories_segments":[],"categories_sizes":[],"default_left":[1,0,1,0,0],"id":92,"left_children":[1,-1,3,-1,-1],"loss_changes":[6.611439E-2,0E0,3.43474E-3,0E0,0E0],"parents":[2147483647,0,0,2,2],"right_children":[2,-1,4,-1,-1],"split_conditions":[5.95E0,-3.3977453E-2,6.25E0,3.8863674E-2,7.607308E-3],"split_indices":[0,0,0,0,0],"split_type":[0,0,0,0,0],"sum_hessian":[3.7627378E0,1.4948739E0,2.267864E0,1.1947892E0,1.0730747E0],"tree_param":{"num_deleted":"0","num_feature":"4","num_nodes":"5","size_leaf_vector":"0"}},{"base_weights":[-2.8012527E-2],"categories":[],"categories_nodes":[],"categories_segments":[],"categories_sizes":[],"default_left":[0],"id":93,"left_children":[-1],"loss_changes":[0E0],"parents":[2147483647],"right_children":[-1],"split_conditions":[-8.4037585E-3],"split_indices":[0],"split_type":[0],"sum_hessian":[1.5468726E0],"tree_param":{"num_deleted":"0","num_feature":"4","num_nodes":"1","size_leaf_vector":"0"}},{"base_weights":[3.5244217E-3,-6.360358E-2,4.689436E-2,1.2092311E-1,-3.7996963E-2],"categories":[],"categories_nodes":[],"categories_segments":[],"categories_sizes":[],"default_left":[1,0,1,0,0],"id":94,"left_children":[1,-1,3,-1,-1],"loss_changes":[1.7918648E-2,0E0,2.7798481E-2,0E0,0E0],"parents":[2147483647,0,0,2,2],"right_children":[2,-1,4,-1,-1],"split_conditions":[5.8500004E0,-1.9081075E-2,4.95E0,3.6276933E-2,-1.1399089E-2],"split_indices":[0,0,2,0,0],"split_type":[0,0,0,0,0],"sum_hessian":[4.1302886E0,1.4380062E0,2.6922822E0,1.2114241E0,1.4808581E0],"tree_param":{"num_deleted":"0","num_feature":"4","num_nodes":"5","size_leaf_vector":"0"}},{"base_weights":[1.1259713E-2,-1.0329971E-1,9.519139E-2,2.1292612E-2,1.2693542E-1],"categories":[],"categories_nodes":[],"categories_segments":[],"categories_sizes":[],"default_left":[1,0,1,0,0],"id":95,"left_children":[1,-1,3,-1,-1],"loss_changes":[5.5317808E-2,0E0,4.922714E-3,0E0,0E0],"parents":[2147483647,0,0,2,2],"right_children":[2,-1,4,-1,-1],"split_conditions":[5.95E0,-3.0989913E-2,1.6500001E0,6.3877837E-3,3.808063E-2],"split_indices":[0,0,3,0,0],"split_type":[0,0,0,0,0],"sum_hessian":[3.7305028E0,1.4798614E0,2.2506413E0,1.1783203E0,1.072321E0],"tree_param":{"num_deleted":"0","num_feature":"4","num_nodes":"5","size_leaf_vector":"0"}},{"base_weights":[-2.8359057E-2],"categories":[],"categories_nodes":[],"categories_segments":[],"categories_sizes":[],"default_left":[0],"id":96,"left_children":[-1],"loss_changes":[0E0],"parents":[2147483647],"right_children":[-1],"split_conditions":[-8.507717E-3],"split_indices":[0],"split_type":[0],"sum_hessian":[1.5282434E0],"tree_param":{"num_deleted":"0","num_feature":"4","num_nodes":"1","size_leaf_vector":"0"}},{"base_weights":[3.2518823E-3,-6.352169E-2,4.6713598E-2,1.1305216E-1,-3.0755622E-2],"categories":[],"categories_nodes":[],"categories_segments":[],"categories_sizes":[],"default_left":[1,0,1,0,0],"id":97,"left_children":[1,-1,3,-1,-1],"loss_changes":[1.7777268E-2,0E0,2.2324624E-2,0E0,0E0],"parents":[2147483647,0,0,2,2],"right_children":[2,-1,4,-1,-1],"split_conditions":[5.8500004E0,-1.9056508E-2,4.95E0,3.391565E-2,-9.226687E-3],"split_indices":[0,0,2,0,0],"split_type":[0,0,0,0,0],"sum_hessian":[4.103191E0,1.435763E0,2.667428E0,1.1895089E0,1.4779191E0],"tree_param":{"num_deleted":"0","num_feature":"4","num_nodes":"5","size_leaf_vector":"0"}},{"base_weights":[1.1728183E-2,-7.322321E-2,1.1639617E-1,8.189778E-2,-1.9044988E-1],"categories":[],"categories_nodes":[],"categories_segments":[],"categories_sizes":[],"default_left":[1,1,0,0,0],"id":98,"left_children":[1,3,-1,-1,-1],"loss_changes":[5.029961E-2,7.392016E-2,0E0,0E0,0E0],"parents":[2147483647,0,0,1,1],"right_children":[2,4,-1,-1,-1],"split_conditions":[1.75E0,2.65E0,3.4918852E-2,2.4569334E-2,-5.7134967E-2],"split_indices":[3,1,0,0,0],"split_type":[0,0,0,0,0],"sum_hessian":[3.6983986E0,2.2073097E0,1.4910889E0,1.0798126E0,1.1274971E0],"tree_param":{"num_deleted":"0","num_feature":"4","num_nodes":"5","size_leaf_vector":"0"}},{"base_weights":[-2.9002678E-2],"categories":[],"categories_nodes":[],"categories_segments":[],"categories_sizes":[],"default_left":[0],"id":99,"left_children":[-1],"loss_changes":[0E0],"parents":[2147483647],"right_children":[-1],"split_conditions":[-8.700804E-3],"split_indices":[0],"split_type":[0],"sum_hessian":[1.5032876E0],"tree_param":{"num_deleted":"0","num_feature":"4","num_nodes":"1","size_leaf_vector":"0"}},{"base_weights":[4.246651E-3,4.3237537E-2,-6.301849E-2,-4.8640374E-2,9.745583E-2],"categories":[],"categories_nodes":[],"categories_segments":[],"categories_sizes":[],"default_left":[1,1,0,0,0],"id":100,"left_children":[1,3,-1,-1,-1],"loss_changes":[1.5970951E-2,2.3621598E-2,0E0,0E0,0E0],"parents":[2147483647,0,0,1,1],"right_children":[2,4,-1,-1,-1],"split_conditions":[1.75E0,5.45E0,-1.8905548E-2,-1.4592113E-2,2.923675E-2],"split_indices":[3,0,0,0,0],"split_type":[0,0,0,0,0],"sum_hessian":[4.050538E0,2.7903137E0,1.2602246E0,1.0737033E0,1.7166104E0],"tree_param":{"num_deleted":"0","num_feature":"4","num_nodes":"5","size_leaf_vector":"0"}},{"base_weights":[1.1039403E-2,-1.0092058E-1,9.35297E-2,1.19386315E-1,1.9935211E-2],"categories":[],"categories_nodes":[],"categories_segments":[],"categories_sizes":[],"default_left":[1,0,1,0,0],"id":101,"left_children":[1,-1,3,-1,-1],"loss_changes":[5.2236762E-2,0E0,3.6848448E-3,0E0,0E0],"parents":[2147483647,0,0,2,2],"right_children":[2,-1,4,-1,-1],"split_conditions":[5.95E0,-3.0276176E-2,6.25E0,3.5815895E-2,5.980564E-3],"split_indices":[0,0,0,0,0],"split_type":[0,0,0,0,0],"sum_hessian":[3.6339855E0,1.4468391E0,2.1871464E0,1.1580575E0,1.029089E0],"tree_param":{"num_deleted":"0","num_feature":"4","num_nodes":"5","size_leaf_vector":"0"}},{"base_weights":[-2.772741E-2],"categories":[],"categories_nodes":[],"categories_segments":[],"categories_sizes":[],"default_left":[0],"id":102,"left_children":[-1],"loss_changes":[0E0],"parents":[2147483647],"right_children":[-1],"split_conditions":[-8.318223E-3],"split_indices":[0],"split_type":[0],"sum_hessian":[1.4903253E0],"tree_param":{"num_deleted":"0","num_feature":"4","num_nodes":"1","size_leaf_vector":"0"}},{"base_weights":[3.243419E-3,-6.0053367E-2,4.5013897E-2,1.1413655E-1,-3.4394205E-2],"categories":[],"categories_nodes":[],"categories_segments":[],"categories_sizes":[],"default_left":[1,0,1,0,0],"id":103,"left_children":[1,-1,3,-1,-1],"loss_changes":[1.596937E-2,0E0,2.3654697E-2,0E0,0E0],"parents":[2147483647,0,0,2,2],"right_children":[2,-1,4,-1,-1],"split_conditions":[5.8500004E0,-1.801601E-2,4.95E0,3.4240965E-2,-1.0318262E-2],"split_indices":[0,0,2,0,0],"split_type":[0,0,0,0,0],"sum_hessian":[4.0175676E0,1.4232105E0,2.5943573E0,1.1531924E0,1.4411647E0],"tree_param":{"num_deleted":"0","num_feature":"4","num_nodes":"5","size_leaf_vector":"0"}},{"base_weights":[1.1478405E-2,-9.614621E-2,9.098366E-2,1.1377669E-1,2.1667887E-2],"categories":[],"categories_nodes":[],"categories_segments":[],"categories_sizes":[],"default_left":[1,0,1,0,0],"id":104,"left_children":[1,-1,3,-1,-1],"loss_changes":[4.809019E-2,0E0,2.5243387E-3,0E0,0E0],"parents":[2147483647,0,0,2,2],"right_children":[2,-1,4,-1,-1],"split_conditions":[5.95E0,-2.8843865E-2,6.25E0,3.413301E-2,6.500366E-3],"split_indices":[0,0,0,0,0],"split_type":[0,0,0,0,0],"sum_hessian":[3.5978417E0,1.4396759E0,2.158166E0,1.1414111E0,1.0167549E0],"tree_param":{"num_deleted":"0","num_feature":"4","num_nodes":"5","size_leaf_vector":"0"}},{"base_weights":[-2.8613415E-2],"categories":[],"categories_nodes":[],"categories_segments":[],"categories_sizes":[],"default_left":[0],"id":105,"left_children":[-1],"loss_changes":[0E0],"parents":[2147483647],"right_children":[-1],"split_conditions":[-8.584024E-3],"split_indices":[0],"split_type":[0],"sum_hessian":[1.4772141E0],"tree_param":{"num_deleted":"0","num_feature":"4","num_nodes":"1","size_leaf_vector":"0"}},{"base_weights":[3.4776886E-3,6.2275697E-2,-4.5823395E-2,-4.3939915E-3,-6.634126E-2],"categories":[],"categories_nodes":[],"categories_segments":[],"categories_sizes":[],"default_left":[1,0,1,0,0],"id":106,"left_children":[1,-1,3,-1,-1],"loss_changes":[1.7333345E-2,0E0,2.5077197E-3,0E0,0E0],"parents":[2147483647,0,0,2,2],"right_children":[2,-1,4,-1,-1],"split_conditions":[2.75E0,1.8682709E-2,5.95E0,-1.3181975E-3,-1.9902378E-2],"split_indices":[1,0,0,0,0],"split_type":[0,0,0,0,0],"sum_hessian":[3.9950442E0,1.7020068E0,2.2930374E0,1.1616344E0,1.1314029E0],"tree_param":{"num_deleted":"0","num_feature":"4","num_nodes":"5","size_leaf_vector":"0"}},{"base_weights":[1.1698201E-2,-7.1065955E-2,1.1392944E-1,7.528958E-2,-1.8020469E-1],"categories":[],"categories_nodes":[],"categories_segments":[],"categories_sizes":[],"default_left":[1,1,0,0,0],"id":107,"left_children":[1,3,-1,-1,-1],"loss_changes":[4.679867E-2,6.378025E-2,0E0,0E0,0E0],"parents":[2147483647,0,0,1,1],"right_children":[2,4,-1,-1,-1],"split_conditions":[1.75E0,2.65E0,3.4178834E-2,2.2586875E-2,-5.406141E-2],"split_indices":[3,1,0,0,0],"split_type":[0,0,0,0,0],"sum_hessian":[3.5741382E0,2.1435878E0,1.4305505E0,1.0481551E0,1.0954328E0],"tree_param":{"num_deleted":"0","num_feature":"4","num_nodes":"5","size_leaf_vector":"0"}},{"base_weights":[-2.5992598E-2],"categories":[],"categories_nodes":[],"categories_segments":[],"categories_sizes":[],"default_left":[0],"id":108,"left_children":[-1],"loss_changes":[0E0],"parents":[2147483647],"right_children":[-1],"split_conditions":[-7.79778E-3],"split_indices":[0],"split_type":[0],"sum_hessian":[1.4571728E0],"tree_param":{"num_deleted":"0","num_feature":"4","num_nodes":"1","size_leaf_vector":"0"}},{"base_weights":[3.4866142E-3,-6.1957046E-2,4.7167208E-2,1.14463344E-1,-3.1753246E-2],"categories":[],"categories_nodes":[],"categories_segments":[],"categories_sizes":[],"default_left":[1,0,1,0,0],"id":109,"left_children":[1,-1,3,-1,-1],"loss_changes":[1.7067272E-2,0E0,2.2410538E-2,0E0,0E0],"parents":[2147483647,0,0,2,2],"right_children":[2,-1,4,-1,-1],"split_conditions":[5.8500004E0,-1.8587114E-2,4.95E0,3.4339003E-2,-9.525974E-3],"split_indices":[0,0,2,0,0],"split_type":[0,0,0,0,0],"sum_hessian":[3.9481714E0,1.4129033E0,2.535268E0,1.125328E0,1.4099401E0],"tree_param":{"num_deleted":"0","num_feature":"4","num_nodes":"5","size_leaf_vector":"0"}},{"base_weights":[1.0326801E-2,-7.8844756E-2,1.0196836E-1],"categories":[],"categories_nodes":[],"categories_segments":[],"categories_sizes":[],"default_left":[1,0,0],"id":110,"left_children":[1,-1,-1],"loss_changes":[4.4927426E-2,0E0,0E0],"parents":[2147483647,0,0],"right_children":[2,-1,-1],"split_conditions":[4.95E0,-2.3653427E-2,3.059051E-2],"split_indices":[2,0,0],"split_type":[0,0,0],"sum_hessian":[3.5140193E0,1.8517851E0,1.6622342E0],"tree_param":{"num_deleted":"0","num_feature":"4","num_nodes":"3","size_leaf_vector":"0"}},{"base_weights":[-2.5954422E-2],"categories":[],"categories_nodes":[],"categories_segments":[],"categories_sizes":[],"default_left":[0],"id":111,"left_children":[-1],"loss_changes":[0E0],"parents":[2147483647],"right_children":[-1],"split_conditions":[-7.7863266E-3],"split_indices":[0],"split_type":[0],"sum_hessian":[1.4403486E0],"tree_param":{"num_deleted":"0","num_feature":"4","num_nodes":"1","size_leaf_vector":"0"}},{"base_weights":[3.4099135E-3,6.094906E-2,-4.486139E-2,-4.1595823E-3,-6.494529E-2],"categories":[],"categories_nodes":[],"categories_segments":[],"categories_sizes":[],"default_left":[1,0,1,0,0],"id":112,"left_children":[1,-1,3,-1,-1],"loss_changes":[1.6407674E-2,0E0,2.3890948E-3,0E0,0E0],"parents":[2147483647,0,0,2,2],"right_children":[2,-1,4,-1,-1],"split_conditions":[2.75E0,1.828472E-2,5.95E0,-1.2478747E-3,-1.9483587E-2],"split_indices":[1,0,0,0,0],"split_type":[0,0,0,0,0],"sum_hessian":[3.9229398E0,1.6698508E0,2.253089E0,1.1432668E0,1.1098223E0],"tree_param":{"num_deleted":"0","num_feature":"4","num_nodes":"5","size_leaf_vector":"0"}},{"base_weights":[1.0379671E-2,-6.911282E-2,1.0917659E-1,7.385965E-2,-1.7581107E-1],"categories":[],"categories_nodes":[],"categories_segments":[],"categories_sizes":[],"default_left":[1,1,0,0,0],"id":113,"left_children":[1,3,-1,-1,-1],"loss_changes":[4.276811E-2,6.023903E-2,0E0,0E0,0E0],"parents":[2147483647,0,0,1,1],"right_children":[2,4,-1,-1,-1],"split_conditions":[1.75E0,2.65E0,3.275298E-2,2.2157894E-2,-5.2743323E-2],"split_indices":[3,1,0,0,0],"split_type":[0,0,0,0,0],"sum_hessian":[3.4848924E0,2.0976048E0,1.3872876E0,1.0279514E0,1.0696535E0],"tree_param":{"num_deleted":"0","num_feature":"4","num_nodes":"5","size_leaf_vector":"0"}},{"base_weights":[-2.360226E-2],"categories":[],"categories_nodes":[],"categories_segments":[],"categories_sizes":[],"default_left":[0],"id":114,"left_children":[-1],"loss_changes":[0E0],"parents":[2147483647],"right_children":[-1],"split_conditions":[-7.0806784E-3],"split_indices":[0],"split_type":[0],"sum_hessian":[1.4222188E0],"tree_param":{"num_deleted":"0","num_feature":"4","num_nodes":"1","size_leaf_vector":"0"}},{"base_weights":[3.3821082E-3,-6.2135756E-2,4.758348E-2,1.0747683E-1,-2.5656106E-2],"categories":[],"categories_nodes":[],"categories_segments":[],"categories_sizes":[],"default_left":[1,0,1,0,0],"id":115,"left_children":[1,-1,3,-1,-1],"loss_changes":[1.7086247E-2,0E0,1.8021777E-2,0E0,0E0],"parents":[2147483647,0,0,2,2],"right_children":[2,-1,4,-1,-1],"split_conditions":[5.8500004E0,-1.8640727E-2,4.95E0,3.224305E-2,-7.696832E-3],"split_indices":[0,0,2,0,0],"split_type":[0,0,0,0,0],"sum_hessian":[3.8790445E0,1.3992506E0,2.479794E0,1.1070275E0,1.3727664E0],"tree_param":{"num_deleted":"0","num_feature":"4","num_nodes":"5","size_leaf_vector":"0"}},{"base_weights":[9.181771E-3,-9.278865E-2,8.589718E-2,2.1381475E-2,1.07771136E-1],"categories":[],"categories_nodes":[],"categories_segments":[],"categories_sizes":[],"default_left":[1,0,1,0,0],"id":116,"left_children":[1,-1,3,-1,-1],"loss_changes":[4.261835E-2,0E0,1.9954797E-3,0E0,0E0],"parents":[2147483647,0,0,2,2],"right_children":[2,-1,4,-1,-1],"split_conditions":[5.95E0,-2.7836597E-2,2.95E0,6.414443E-3,3.2331344E-2],"split_indices":[0,0,1,0,0],"split_type":[0,0,0,0,0],"sum_hessian":[3.4291685E0,1.3822967E0,2.046872E0,1.0189717E0,1.0279001E0],"tree_param":{"num_deleted":"0","num_feature":"4","num_nodes":"5","size_leaf_vector":"0"}},{"base_weights":[-2.4513584E-2],"categories":[],"categories_nodes":[],"categories_segments":[],"categories_sizes":[],"default_left":[0],"id":117,"left_children":[-1],"loss_changes":[0E0],"parents":[2147483647],"right_children":[-1],"split_conditions":[-7.3540756E-3],"split_indices":[0],"split_type":[0],"sum_hessian":[1.4081506E0],"tree_param":{"num_deleted":"0","num_feature":"4","num_nodes":"1","size_leaf_vector":"0"}},{"base_weights":[3.1619463E-3,-6.1533753E-2,4.7034703E-2,9.5848404E-2,-3.3216782E-2],"categories":[],"categories_nodes":[],"categories_segments":[],"categories_sizes":[],"default_left":[1,0,1,0,0],"id":118,"left_children":[1,-1,3,-1,-1],"loss_changes":[1.6686305E-2,0E0,1.6746994E-2,0E0,0E0],"parents":[2147483647,0,0,2,2],"right_children":[2,-1,4,-1,-1],"split_conditions":[5.8500004E0,-1.8460127E-2,1.75E0,2.8754523E-2,-9.965035E-3],"split_indices":[0,0,3,0,0],"split_type":[0,0,0,0,0],"sum_hessian":[3.8591418E0,1.3968164E0,2.4623253E0,1.4102048E0,1.0521206E0],"tree_param":{"num_deleted":"0","num_feature":"4","num_nodes":"5","size_leaf_vector":"0"}},{"base_weights":[9.908097E-3,-6.53368E-2,1.0395087E-1,7.3690444E-2,-1.7075989E-1],"categories":[],"categories_nodes":[],"categories_segments":[],"categories_sizes":[],"default_left":[1,1,0,0,0],"id":119,"left_children":[1,3,-1,-1,-1],"loss_changes":[3.797783E-2,5.7466645E-2,0E0,0E0,0E0],"parents":[2147483647,0,0,1,1],"right_children":[2,4,-1,-1,-1],"split_conditions":[1.75E0,2.65E0,3.1185264E-2,2.2107134E-2,-5.122797E-2],"split_indices":[3,1,0,0,0],"split_type":[0,0,0,0,0],"sum_hessian":[3.4071448E0,2.062308E0,1.3448367E0,1.0192153E0,1.0430927E0],"tree_param":{"num_deleted":"0","num_feature":"4","num_nodes":"5","size_leaf_vector":"0"}},{"base_weights":[-2.5261592E-2],"categories":[],"categories_nodes":[],"categories_segments":[],"categories_sizes":[],"default_left":[0],"id":120,"left_children":[-1],"loss_changes":[0E0],"parents":[2147483647],"right_children":[-1],"split_conditions":[-7.5784777E-3],"split_indices":[0],"split_type":[0],"sum_hessian":[1.3882524E0],"tree_param":{"num_deleted":"0","num_feature":"4","num_nodes":"1","size_leaf_vector":"0"}},{"base_weights":[3.4704453E-3,5.7167523E-2,-4.2031772E-2,6.629178E-4,-6.570991E-2],"categories":[],"categories_nodes":[],"categories_segments":[],"categories_sizes":[],"default_left":[1,0,1,0,0],"id":121,"left_children":[1,-1,3,-1,-1],"loss_changes":[1.4162286E-2,0E0,3.259853E-3,0E0,0E0],"parents":[2147483647,0,0,2,2],"right_children":[2,-1,4,-1,-1],"split_conditions":[2.75E0,1.7150257E-2,5.95E0,1.9887535E-4,-1.9712973E-2],"split_indices":[1,0,0,0,0],"split_type":[0,0,0,0,0],"sum_hessian":[3.8128603E0,1.6313452E0,2.181515E0,1.1250001E0,1.0565149E0],"tree_param":{"num_deleted":"0","num_feature":"4","num_nodes":"5","size_leaf_vector":"0"}},{"base_weights":[1.0022227E-2,-9.4373375E-2,8.914693E-2],"categories":[],"categories_nodes":[],"categories_segments":[],"categories_sizes":[],"default_left":[1,0,0],"id":122,"left_children":[1,-1,-1],"loss_changes":[4.4371314E-2,0E0,0E0],"parents":[2147483647,0,0],"right_children":[2,-1,-1],"split_conditions":[5.95E0,-2.8312014E-2,2.6744079E-2],"split_indices":[0,0,0],"split_type":[0,0,0],"sum_hessian":[3.3531525E0,1.3626204E0,1.990532E0],"tree_param":{"num_deleted":"0","num_feature":"4","num_nodes":"3","size_leaf_vector":"0"}},{"base_weights":[-2.2660188E-2],"categories":[],"categories_nodes":[],"categories_segments":[],"categories_sizes":[],"default_left":[0],"id":123,"left_children":[-1],"loss_changes":[0E0],"parents":[2147483647],"right_children":[-1],"split_conditions":[-6.798057E-3],"split_indices":[0],"split_type":[0],"sum_hessian":[1.3773915E0],"tree_param":{"num_deleted":"0","num_feature":"4","num_nodes":"1","size_leaf_vector":"0"}},{"base_weights":[3.6356065E-3,-6.286085E-2,4.9170785E-2,1.0871097E-1,-2.437402E-2],"categories":[],"categories_nodes":[],"categories_segments":[],"categories_sizes":[],"default_left":[1,0,1,0,0],"id":124,"left_children":[1,-1,3,-1,-1],"loss_changes":[1.7611586E-2,0E0,1.7570809E-2,0E0,0E0],"parents":[2147483647,0,0,2,2],"right_children":[2,-1,4,-1,-1],"split_conditions":[5.8500004E0,-1.8858254E-2,4.95E0,3.2613292E-2,-7.312206E-3],"split_indices":[0,0,2,0,0],"split_type":[0,0,0,0,0],"sum_hessian":[3.79558E0,1.388061E0,2.4075189E0,1.0661935E0,1.3413254E0],"tree_param":{"num_deleted":"0","num_feature":"4","num_nodes":"5","size_leaf_vector":"0"}},{"base_weights":[8.414842E-3,-8.49024E-2,7.958788E-2],"categories":[],"categories_nodes":[],"categories_segments":[],"categories_sizes":[],"default_left":[1,0,0],"id":125,"left_children":[1,-1,-1],"loss_changes":[3.5516072E-2,0E0,0E0],"parents":[2147483647,0,0],"right_children":[2,-1,-1],"split_conditions":[5.95E0,-2.547072E-2,2.3876363E-2],"split_indices":[0,0,0],"split_type":[0,0,0],"sum_hessian":[3.3300653E0,1.3574145E0,1.9726508E0],"tree_param":{"num_deleted":"0","num_feature":"4","num_nodes":"3","size_leaf_vector":"0"}},{"base_weights":[-2.3648491E-2],"categories":[],"categories_nodes":[],"categories_segments":[],"categories_sizes":[],"default_left":[0],"id":126,"left_children":[-1],"loss_changes":[0E0],"parents":[2147483647],"right_children":[-1],"split_conditions":[-7.0945476E-3],"split_indices":[0],"split_type":[0],"sum_hessian":[1.3644493E0],"tree_param":{"num_deleted":"0","num_feature":"4","num_nodes":"1","size_leaf_vector":"0"}},{"base_weights":[4.597855E-3,-6.184824E-2,4.997162E-2,9.430296E-2,-2.7614992E-2],"categories":[],"categories_nodes":[],"categories_segments":[],"categories_sizes":[],"default_left":[1,0,1,0,0],"id":127,"left_children":[1,-1,3,-1,-1],"loss_changes":[1.7495012E-2,0E0,1.42714875E-2,0E0,0E0],"parents":[2147483647,0,0,2,2],"right_children":[2,-1,4,-1,-1],"split_conditions":[5.8500004E0,-1.8554473E-2,1.75E0,2.8290888E-2,-8.284498E-3],"split_indices":[0,0,3,0,0],"split_type":[0,0,0,0,0],"sum_hessian":[3.7777061E0,1.3855704E0,2.3921359E0,1.3852053E0,1.0069306E0],"tree_param":{"num_deleted":"0","num_feature":"4","num_nodes":"5","size_leaf_vector":"0"}},{"base_weights":[7.874834E-3,-6.260008E-2,9.767718E-2,7.228182E-2,-1.6579251E-1],"categories":[],"categories_nodes":[],"categories_segments":[],"categories_sizes":[],"default_left":[1,1,0,0,0],"id":128,"left_children":[1,3,-1,-1,-1],"loss_changes":[3.339873E-2,5.4086834E-2,0E0,0E0,0E0],"parents":[2147483647,0,0,1,1],"right_children":[2,4,-1,-1,-1],"split_conditions":[1.75E0,2.65E0,2.9303154E-2,2.1684548E-2,-4.9737755E-2],"split_indices":[3,1,0,0,0],"split_type":[0,0,0,0,0],"sum_hessian":[3.3110974E0,2.024907E0,1.2861903E0,1.0075244E0,1.0173827E0],"tree_param":{"num_deleted":"0","num_feature":"4","num_nodes":"5","size_leaf_vector":"0"}},{"base_weights":[-2.4545016E-2],"categories":[],"categories_nodes":[],"categories_segments":[],"categories_sizes":[],"default_left":[0],"id":129,"left_children":[-1],"loss_changes":[0E0],"parents":[2147483647],"right_children":[-1],"split_conditions":[-7.363505E-3],"split_indices":[0],"split_type":[0],"sum_hessian":[1.3463784E0],"tree_param":{"num_deleted":"0","num_feature":"4","num_nodes":"1","size_leaf_vector":"0"}},{"base_weights":[4.638304E-3,-5.5397227E-2,4.579933E-2,1.0731491E-1,-2.8250333E-2],"categories":[],"categories_nodes":[],"categories_segments":[],"categories_sizes":[],"default_left":[1,0,1,0,0],"id":130,"left_children":[1,-1,3,-1,-1],"loss_changes":[1.4238253E-2,0E0,1.8321559E-2,0E0,0E0],"parents":[2147483647,0,0,2,2],"right_children":[2,-1,4,-1,-1],"split_conditions":[5.8500004E0,-1.6619168E-2,4.95E0,3.2194473E-2,-8.475101E-3],"split_indices":[0,0,2,0,0],"split_type":[0,0,0,0,0],"sum_hessian":[3.7351315E0,1.3785613E0,2.3565705E0,1.0418452E0,1.3147252E0],"tree_param":{"num_deleted":"0","num_feature":"4","num_nodes":"5","size_leaf_vector":"0"}},{"base_weights":[8.359751E-3,-8.68351E-2,8.167551E-2],"categories":[],"categories_nodes":[],"categories_segments":[],"categories_sizes":[],"default_left":[1,0,0],"id":131,"left_children":[1,-1,-1],"loss_changes":[3.6838394E-2,0E0,0E0],"parents":[2147483647,0,0],"right_children":[2,-1,-1],"split_conditions":[5.95E0,-2.6050532E-2,2.4502654E-2],"split_indices":[0,0,0],"split_type":[0,0,0],"sum_hessian":[3.2620556E0,1.3390298E0,1.9230258E0],"tree_param":{"num_deleted":"0","num_feature":"4","num_nodes":"3","size_leaf_vector":"0"}},{"base_weights":[-2.5108088E-2],"categories":[],"categories_nodes":[],"categories_segments":[],"categories_sizes":[],"default_left":[0],"id":132,"left_children":[-1],"loss_changes":[0E0],"parents":[2147483647],"right_children":[-1],"split_conditions":[-7.5324266E-3],"split_indices":[0],"split_type":[0],"sum_hessian":[1.334562E0],"tree_param":{"num_deleted":"0","num_feature":"4","num_nodes":"1","size_leaf_vector":"0"}},{"base_weights":[5.4686773E-3,-5.5176932E-2,4.697654E-2,1.0059788E-1,-2.0455176E-2],"categories":[],"categories_nodes":[],"categories_segments":[],"categories_sizes":[],"default_left":[1,0,1,0,0],"id":133,"left_children":[1,-1,3,-1,-1],"loss_changes":[1.4467844E-2,0E0,1.4137793E-2,0E0,0E0],"parents":[2147483647,0,0,2,2],"right_children":[2,-1,4,-1,-1],"split_conditions":[5.8500004E0,-1.655308E-2,4.95E0,3.0179365E-2,-6.136553E-3],"split_indices":[0,0,2,0,0],"split_type":[0,0,0,0,0],"sum_hessian":[3.7177396E0,1.3768141E0,2.3409255E0,1.030015E0,1.3109105E0],"tree_param":{"num_deleted":"0","num_feature":"4","num_nodes":"5","size_leaf_vector":"0"}},{"base_weights":[7.734184E-3,-7.990099E-2,7.509859E-2],"categories":[],"categories_nodes":[],"categories_segments":[],"categories_sizes":[],"default_left":[1,0,0],"id":134,"left_children":[1,-1,-1],"loss_changes":[3.1047974E-2,0E0,0E0],"parents":[2147483647,0,0],"right_children":[2,-1,-1],"split_conditions":[5.95E0,-2.3970297E-2,2.2529578E-2],"split_indices":[0,0,0],"split_type":[0,0,0],"sum_hessian":[3.2428324E0,1.3284868E0,1.9143457E0],"tree_param":{"num_deleted":"0","num_feature":"4","num_nodes":"3","size_leaf_vector":"0"}},{"base_weights":[-2.5632145E-2],"categories":[],"categories_nodes":[],"categories_segments":[],"categories_sizes":[],"default_left":[0],"id":135,"left_children":[-1],"loss_changes":[0E0],"parents":[2147483647],"right_children":[-1],"split_conditions":[-7.6896437E-3],"split_indices":[0],"split_type":[0],"sum_hessian":[1.3235844E0],"tree_param":{"num_deleted":"0","num_feature":"4","num_nodes":"1","size_leaf_vector":"0"}},{"base_weights":[6.103229E-3,6.1408352E-2,-4.2397454E-2,-1.2437431E-2,-5.234771E-2],"categories":[],"categories_nodes":[],"categories_segments":[],"categories_sizes":[],"default_left":[1,0,1,0,0],"id":136,"left_children":[1,-1,3,-1,-1],"loss_changes":[1.5216385E-2,0E0,2.7210778E-4,0E0,0E0],"parents":[2147483647,0,0,2,2],"right_children":[2,-1,4,-1,-1],"split_conditions":[2.75E0,1.8422507E-2,5.95E0,-3.7312296E-3,-1.5704313E-2],"split_indices":[1,0,0,0,0],"split_type":[0,0,0,0,0],"sum_hessian":[3.7021801E0,1.6054074E0,2.096773E0,1.0837085E0,1.0130643E0],"tree_param":{"num_deleted":"0","num_feature":"4","num_nodes":"5","size_leaf_vector":"0"}},{"base_weights":[7.3029506E-3,-6.307622E-2,9.790276E-2],"categories":[],"categories_nodes":[],"categories_segments":[],"categories_sizes":[],"default_left":[1,0,0],"id":137,"left_children":[1,-1,-1],"loss_changes":[3.3120703E-2,0E0,0E0],"parents":[2147483647,0,0],"right_children":[2,-1,-1],"split_conditions":[1.75E0,-1.8922867E-2,2.937083E-2],"split_indices":[3,0,0],"split_type":[0,0,0],"sum_hessian":[3.2258363E0,1.9864937E0,1.2393425E0],"tree_param":{"num_deleted":"0","num_feature":"4","num_nodes":"3","size_leaf_vector":"0"}},{"base_weights":[-2.2914272E-2],"categories":[],"categories_nodes":[],"categories_segments":[],"categories_sizes":[],"default_left":[0],"id":138,"left_children":[-1],"loss_changes":[0E0],"parents":[2147483647],"right_children":[-1],"split_conditions":[-6.874282E-3],"split_indices":[0],"split_type":[0],"sum_hessian":[1.3119755E0],"tree_param":{"num_deleted":"0","num_feature":"4","num_nodes":"1","size_leaf_vector":"0"}},{"base_weights":[4.1695936E-3,-6.0050827E-2,4.8819635E-2,1.0002218E-1,-1.7042981E-2],"categories":[],"categories_nodes":[],"categories_segments":[],"categories_sizes":[],"default_left":[1,0,1,0,0],"id":139,"left_children":[1,-1,3,-1,-1],"loss_changes":[1.634086E-2,0E0,1.286733E-2,0E0,0E0],"parents":[2147483647,0,0,2,2],"right_children":[2,-1,4,-1,-1],"split_conditions":[5.8500004E0,-1.8015249E-2,4.95E0,3.0006656E-2,-5.112895E-3],"split_indices":[0,0,2,0,0],"split_type":[0,0,0,0,0],"sum_hessian":[3.6763592E0,1.3662918E0,2.3100677E0,1.007879E0,1.3021885E0],"tree_param":{"num_deleted":"0","num_feature":"4","num_nodes":"5","size_leaf_vector":"0"}},{"base_weights":[7.976905E-3,-7.401638E-2,7.096959E-2],"categories":[],"categories_nodes":[],"categories_segments":[],"categories_sizes":[],"default_left":[1,0,0],"id":140,"left_children":[1,-1,-1],"loss_changes":[2.6929855E-2,0E0,0E0],"parents":[2147483647,0,0],"right_children":[2,-1,-1],"split_conditions":[5.95E0,-2.2204913E-2,2.1290878E-2],"split_indices":[0,0,0],"split_type":[0,0,0],"sum_hessian":[3.1969104E0,1.3129427E0,1.8839676E0],"tree_param":{"num_deleted":"0","num_feature":"4","num_nodes":"3","size_leaf_vector":"0"}},{"base_weights":[-2.3855094E-2],"categories":[],"categories_nodes":[],"categories_segments":[],"categories_sizes":[],"default_left":[0],"id":141,"left_children":[-1],"loss_changes":[0E0],"parents":[2147483647],"right_children":[-1],"split_conditions":[-7.1565285E-3],"split_indices":[0],"split_type":[0],"sum_hessian":[1.3014328E0],"tree_param":{"num_deleted":"0","num_feature":"4","num_nodes":"1","size_leaf_vector":"0"}},{"base_weights":[4.9633104E-3,-5.886605E-2,4.9225803E-2,1.1847202E-2,6.108677E-2],"categories":[],"categories_nodes":[],"categories_segments":[],"categories_sizes":[],"default_left":[1,0,1,0,0],"id":142,"left_children":[1,-1,3,-1,-1],"loss_changes":[1.6067179E-2,0E0,7.380787E-4,0E0,0E0],"parents":[2147483647,0,0,2,2],"right_children":[2,-1,4,-1,-1],"split_conditions":[5.8500004E0,-1.7659815E-2,1.6500001E0,3.5541607E-3,1.8326031E-2],"split_indices":[0,0,3,0,0],"split_type":[0,0,0,0,0],"sum_hessian":[3.661346E0,1.36418E0,2.2971659E0,1.0348338E0,1.2623321E0],"tree_param":{"num_deleted":"0","num_feature":"4","num_nodes":"5","size_leaf_vector":"0"}},{"base_weights":[7.5970558E-3,-5.885702E-2,9.36653E-2],"categories":[],"categories_nodes":[],"categories_segments":[],"categories_sizes":[],"default_left":[1,0,0],"id":143,"left_children":[1,-1,-1],"loss_changes":[2.9428853E-2,0E0,0E0],"parents":[2147483647,0,0],"right_children":[2,-1,-1],"split_conditions":[1.75E0,-1.7657107E-2,2.809959E-2],"split_indices":[3,0,0],"split_type":[0,0,0],"sum_hessian":[3.1814206E0,1.9736817E0,1.2077389E0],"tree_param":{"num_deleted":"0","num_feature":"4","num_nodes":"3","size_leaf_vector":"0"}},{"base_weights":[-2.447191E-2],"categories":[],"categories_nodes":[],"categories_segments":[],"categories_sizes":[],"default_left":[0],"id":144,"left_children":[-1],"loss_changes":[0E0],"parents":[2147483647],"right_children":[-1],"split_conditions":[-7.3415735E-3],"split_indices":[0],"split_type":[0],"sum_hessian":[1.2913687E0],"tree_param":{"num_deleted":"0","num_feature":"4","num_nodes":"1","size_leaf_vector":"0"}},{"base_weights":[3.8569346E-3,-5.6305777E-2,4.5830254E-2,6.6604954E-3,6.086329E-2],"categories":[],"categories_nodes":[],"categories_segments":[],"categories_sizes":[],"default_left":[1,0,1,0,0],"id":145,"left_children":[1,-1,3,-1,-1],"loss_changes":[1.43086E-2,0E0,1.5301527E-3,0E0,0E0],"parents":[2147483647,0,0,2,2],"right_children":[2,-1,4,-1,-1],"split_conditions":[5.8500004E0,-1.6891735E-2,1.6500001E0,1.9981486E-3,1.8258987E-2],"split_indices":[0,0,3,0,0],"split_type":[0,0,0,0,0],"sum_hessian":[3.6443684E0,1.3573445E0,2.287024E0,1.0345306E0,1.2524934E0],"tree_param":{"num_deleted":"0","num_feature":"4","num_nodes":"5","size_leaf_vector":"0"}},{"base_weights":[9.170438E-3,-5.350194E-2,8.9687996E-2],"categories":[],"categories_nodes":[],"categories_segments":[],"categories_sizes":[],"default_left":[1,0,0],"id":146,"left_children":[1,-1,-1],"loss_changes":[2.579692E-2,0E0,0E0],"parents":[2147483647,0,0],"right_children":[2,-1,-1],"split_conditions":[1.75E0,-1.6050583E-2,2.6906399E-2],"split_indices":[3,0,0],"split_type":[0,0,0],"sum_hessian":[3.1612158E0,1.9662625E0,1.1949534E0],"tree_param":{"num_deleted":"0","num_feature":"4","num_nodes":"3","size_leaf_vector":"0"}},{"base_weights":[-2.4932858E-2],"categories":[],"categories_nodes":[],"categories_segments":[],"categories_sizes":[],"default_left":[0],"id":147,"left_children":[-1],"loss_changes":[0E0],"parents":[2147483647],"right_children":[-1],"split_conditions":[-7.4798577E-3],"split_indices":[0],"split_type":[0],"sum_hessian":[1.2820758E0],"tree_param":{"num_deleted":"0","num_feature":"4","num_nodes":"1","size_leaf_vector":"0"}},{"base_weights":[2.9603236E-3,-5.3869445E-2,4.282257E-2,2.2413747E-3,6.0535397E-2],"categories":[],"categories_nodes":[],"categories_segments":[],"categories_sizes":[],"default_left":[1,0,1,0,0],"id":148,"left_children":[1,-1,3,-1,-1],"loss_changes":[1.2793107E-2,0E0,2.2203904E-3,0E0,0E0],"parents":[2147483647,0,0,2,2],"right_children":[2,-1,4,-1,-1],"split_conditions":[5.8500004E0,-1.6160835E-2,1.6500001E0,6.7241245E-4,1.816062E-2],"split_indices":[0,0,3,0,0],"split_type":[0,0,0,0,0],"sum_hessian":[3.6289632E0,1.3512121E0,2.277751E0,1.0344048E0,1.2433463E0],"tree_param":{"num_deleted":"0","num_feature":"4","num_nodes":"5","size_leaf_vector":"0"}},{"base_weights":[1.0426896E-2,-7.309887E-2,7.38634E-2],"categories":[],"categories_nodes":[],"categories_segments":[],"categories_sizes":[],"default_left":[1,0,0],"id":149,"left_children":[1,-1,-1],"loss_changes":[2.735028E-2,0E0,0E0],"parents":[2147483647,0,0],"right_children":[2,-1,-1],"split_conditions":[5.95E0,-2.192966E-2,2.2159021E-2],"split_indices":[0,0,0],"split_type":[0,0,0],"sum_hessian":[3.142797E0,1.2908462E0,1.8519508E0],"tree_param":{"num_deleted":"0","num_feature":"4","num_nodes":"3","size_leaf_vector":"0"}},{"base_weights":[-2.5616828E-2],"categories":[],"categories_nodes":[],"categories_segments":[],"categories_sizes":[],"default_left":[0],"id":150,"left_children":[-1],"loss_changes":[0E0],"parents":[2147483647],"right_children":[-1],"split_conditions":[-7.685049E-3],"split_indices":[0],"split_type":[0],"sum_hessian":[1.2732404E0],"tree_param":{"num_deleted":"0","num_feature":"4","num_nodes":"1","size_leaf_vector":"0"}},{"base_weights":[3.5996516E-3,-5.3253867E-2,4.333224E-2,7.1221245E-3,5.6868058E-2],"categories":[],"categories_nodes":[],"categories_segments":[],"categories_sizes":[],"default_left":[1,0,1,0,0],"id":151,"left_children":[1,-1,3,-1,-1],"loss_changes":[1.2747311E-2,0E0,1.1985591E-3,0E0,0E0],"parents":[2147483647,0,0,2,2],"right_children":[2,-1,4,-1,-1],"split_conditions":[5.8500004E0,-1.597616E-2,1.6500001E0,2.1366375E-3,1.7060418E-2],"split_indices":[0,0,3,0,0],"split_type":[0,0,0,0,0],"sum_hessian":[3.6215093E0,1.3497869E0,2.2717223E0,1.0334022E0,1.2383201E0],"tree_param":{"num_deleted":"0","num_feature":"4","num_nodes":"5","size_leaf_vector":"0"}},{"base_weights":[1.0064991E-2,-5.2048076E-2,8.982791E-2],"categories":[],"categories_nodes":[],"categories_segments":[],"categories_sizes":[],"default_left":[1,0,0],"id":152,"left_children":[1,-1,-1],"loss_changes":[2.5151594E-2,0E0,0E0],"parents":[2147483647,0,0],"right_children":[2,-1,-1],"split_conditions":[1.75E0,-1.5614423E-2,2.6948374E-2],"split_indices":[3,0,0],"split_type":[0,0,0],"sum_hessian":[3.1330044E0,1.956726E0,1.1762785E0],"tree_param":{"num_deleted":"0","num_feature":"4","num_nodes":"3","size_leaf_vector":"0"}},{"base_weights":[-2.5878638E-2],"categories":[],"categories_nodes":[],"categories_segments":[],"categories_sizes":[],"default_left":[0],"id":153,"left_children":[-1],"loss_changes":[0E0],"parents":[2147483647],"right_children":[-1],"split_conditions":[-7.7635916E-3],"split_indices":[0],"split_type":[0],"sum_hessian":[1.2645497E0],"tree_param":{"num_deleted":"0","num_feature":"4","num_nodes":"1","size_leaf_vector":"0"}},{"base_weights":[2.7586243E-3,5.19881E-2,-4.043262E-2],"categories":[],"categories_nodes":[],"categories_segments":[],"categories_sizes":[],"default_left":[1,0,0],